{"learner":{"attributes":{"scikit_learn":"{\"_estimator_type\": \"classifier\"}"},"feature_names":["Monthly_Inhand_Salary","Total_EMI_per_month","Num_of_Delayed_Payment","Delay_from_due_date","Changed_Credit_Limit","Num_Credit_Card","Outstanding_Debt","Interest_Rate","Credit_Mix"],"feature_types":["float","float","float","float","float","float","float","float","float"],"gradient_booster":{"model":{"gbtree_model_param":{"num_parallel_tree":"1","num_trees":"300"},"iteration_indptr":[0,3,6,9,12,15,18,21,24,27,30,33,36,39,42,45,48,51,54,57,60,63,66,69,72,75,78,81,84,87,90,93,96,99,102,105,108,111,114,117,120,123,126,129,132,135,138,141,144,147,150,153,156,159,162,165,168,171,174,177,180,183,186,189,192,195,198,201,204,207,210,213,216,219,222,225,228,231,234,237,240,243,246,249,252,255,258,261,264,267,270,273,276,279,282,285,288,291,294,297,300],"tree_info":[0,1,2,0,1,2,0,1,2,0,1,2,0,1,2,0,1,2,0,1,2,0,1,2,0,1,2,0,1,2,0,1,2,0,1,2,0,1,2,0,1,2,0,1,2,0,1,2,0,1,2,0,1,2,0,1,2,0,1,2,0,1,2,0,1,2,0,1,2,0,1,2,0,1,2,0,1,2,0,1,2,0,1,2,0,1,2,0,1,2,0,1,2,0,1,2,0,1,2,0,1,2,0,1,2,0,1,2,0,1,2,0,1,2,0,1,2,0,1,2,0,1,2,0,1,2,0,1,2,0,1,2,0,1,2,0,1,2,0,1,2,0,1,2,0,1,2,0,1,2,0,1,2,0,1,2,0,1,2,0,1,2,0,1,2,0,1,2,0,1,2,0,1,2,0,1,2,0,1,2,0,1,2,0,1,2,0,1,2,0,1,2,0,1,2,0,1,2,0,1,2,0,1,2,0,1,2,0,1,2,0,1,2,0,1,2,0,1,2,0,1,2,0,1,2,0,1,2,0,1,2,0,1,2,0,1,2,0,1,2,0,1,2,0,1,2,0,1,2,0,1,2,0,1,2,0,1,2,0,1,2,0,1,2,0,1,2,0,1,2,0,1,2,0,1,2,0,1,2,0,1,2,0,1,2,0,1,2,0,1,2,0,1,2,0,1,2,0,1,2],"trees":[{"base_weights":[-1.4399786E-8,5.091999E-1,-5.945806E-1,8.1014055E-1,-3.6185467E-1,-3.378282E-1,-6.7606837E-1,1.306472E0,7.0558137E-1,-4.0320995E-1,8.021087E-1,-4.0647772E-1,4.3983564E-1,-6.816186E-1,-2.3383204E-2,1.3297186E0,1.1840515E0,7.921144E-1,2.6697752E-1,-4.3377438E-1,-2.3279001E-1,1.0444187E0,2.6517045E-1,-4.291694E-1,-1.9569348E-1,2.5734738E-1,1.0380279E0,-3.9786136E-1,-6.894392E-1,4.519646E-1,-2.8457925E-1,1.2853596E0,4.055515E-1,1.2143722E0,1.0326446E0,8.9480263E-1,5.1381356E-1,-1.3123867E-1,8.193351E-1,-4.4265357E-1,2.1644473E-1,4.361276E-1,-2.5464362E-1,-1.6900733E-1,1.0824989E0,-1.1829261E-1,7.9179376E-1,-2.9470006E-1,-4.5402113E-1,5.1710345E-2,-2.9146245E-1,1.1129009E0,1.2771418E-2,1.1655319E0,2.949974E-1,-2.8669927E-1,-5.6465447E-1,-7.04787E-1,-5.798795E-1,9.320226E-1,-7.843258E-2,3.803301E-1,-4.4446516E-1,3.556565E-1,3.9251766E-1,3.244331E-1,3.757425E-1,2.4415655E-1,3.7229452E-1,2.415083E-1,2.769334E-1,1.4166127E-1,2.6693717E-1,-1.2911572E-1,5.0217804E-2,2.771326E-1,2.4991953E-3,7.901151E-2,-1.3446625E-1,2.978216E-1,-1.4283544E-1,-5.6083832E-2,2.3666675E-1,-7.948831E-2,2.2022024E-1,1.7930576E-1,3.6679566E-1,9.1061234E-2,-2.1167175E-1,2.8055826E-1,-1.59111E-1,-9.935057E-2,1.808702E-1,-1.303034E-1,-1.7815292E-1,6.245933E-2,-2.1445604E-1,-1.0972909E-1,4.0439473E-4,3.3940315E-1,6.970176E-2,-1.0154229E-1,3.9195072E-2,1.5173247E-1,3.6247832E-1,2.521119E-1,-1.8844202E-1,-5.249354E-2,-1.5037405E-1,-1.9529785E-1,-2.7370581E-2,-2.1242271E-1,-5.3484995E-2,-6.036306E-2,-1.7673922E-1,-1.7027779E-1,3.516688E-1,1.03739314E-1,-2.0262341E-1,-1.9500785E-1,3.200999E-1,-1.1944034E-2,-1.6881014E-1],"categories":[],"categories_nodes":[],"categories_segments":[],"categories_sizes":[],"default_left":[0,0,0,0,0,0,0,0,0,0,0,0,0,0,0,0,0,0,0,0,0,0,0,0,0,0,0,0,0,0,0,0,0,0,0,0,0,0,0,0,0,0,0,0,0,0,0,0,0,0,0,0,0,0,0,0,0,0,0,0,0,0,0,0,0,0,0,0,0,0,0,0,0,0,0,0,0,0,0,0,0,0,0,0,0,0,0,0,0,0,0,0,0,0,0,0,0,0,0,0,0,0,0,0,0,0,0,0,0,0,0,0,0,0,0,0,0,0,0,0,0,0,0],"id":0,"left_children":[1,3,5,7,9,11,13,15,17,19,21,23,25,27,29,31,33,35,37,39,41,43,45,47,49,51,53,55,57,59,61,63,-1,65,67,69,71,73,75,77,79,81,83,-1,85,87,89,91,93,95,97,99,101,103,105,107,109,111,113,115,117,119,121,-1,-1,-1,-1,-1,-1,-1,-1,-1,-1,-1,-1,-1,-1,-1,-1,-1,-1,-1,-1,-1,-1,-1,-1,-1,-1,-1,-1,-1,-1,-1,-1,-1,-1,-1,-1,-1,-1,-1,-1,-1,-1,-1,-1,-1,-1,-1,-1,-1,-1,-1,-1,-1,-1,-1,-1,-1,-1,-1,-1],"loss_changes":[1.3456623E4,6.2764126E3,4.2876367E2,9.225547E2,2.9628778E2,2.6400323E2,5.6362793E1,7.2348633E0,5.577285E2,3.0829895E1,2.7213516E1,2.1638E1,4.354431E1,3.3972168E1,1.6550444E1,8.0615234E-1,1.055542E0,3.504131E2,5.3326013E2,2.915924E1,1.3343533E1,9.502731E0,1.3632323E1,1.3565002E1,1.0516693E1,6.46128E1,8.512939E0,7.556381E0,2.4841797E1,1.2114281E1,9.308907E0,4.798584E-1,0E0,7.397461E-1,3.12072E0,2.204541E1,5.138617E1,1.25974045E2,8.6011536E1,1.9639404E1,3.7294167E1,6.5229144E0,9.142704E0,0E0,8.93367E0,1.0040336E1,5.8764935E0,2.1223873E1,9.255676E0,1.5088354E1,6.9556274E0,8.520584E-1,1.0031073E1,1.6287842E0,8.095516E0,5.9484844E0,6.7032623E0,2.2672363E1,6.3651123E0,9.635073E0,6.1571426E0,1.2866265E1,3.3156376E0,0E0,0E0,0E0,0E0,0E0,0E0,0E0,0E0,0E0,0E0,0E0,0E0,0E0,0E0,0E0,0E0,0E0,0E0,0E0,0E0,0E0,0E0,0E0,0E0,0E0,0E0,0E0,0E0,0E0,0E0,0E0,0E0,0E0,0E0,0E0,0E0,0E0,0E0,0E0,0E0,0E0,0E0,0E0,0E0,0E0,0E0,0E0,0E0,0E0,0E0,0E0,0E0,0E0,0E0,0E0,0E0,0E0,0E0,0E0,0E0],"parents":[2147483647,0,0,1,1,2,2,3,3,4,4,5,5,6,6,7,7,8,8,9,9,10,10,11,11,12,12,13,13,14,14,15,15,16,16,17,17,18,18,19,19,20,20,21,21,22,22,23,23,24,24,25,25,26,26,27,27,28,28,29,29,30,30,31,31,33,33,34,34,35,35,36,36,37,37,38,38,39,39,40,40,41,41,42,42,44,44,45,45,46,46,47,47,48,48,49,49,50,50,51,51,52,52,53,53,54,54,55,55,56,56,57,57,58,58,59,59,60,60,61,61,62,62],"right_children":[2,4,6,8,10,12,14,16,18,20,22,24,26,28,30,32,34,36,38,40,42,44,46,48,50,52,54,56,58,60,62,64,-1,66,68,70,72,74,76,78,80,82,84,-1,86,88,90,92,94,96,98,100,102,104,106,108,110,112,114,116,118,120,122,-1,-1,-1,-1,-1,-1,-1,-1,-1,-1,-1,-1,-1,-1,-1,-1,-1,-1,-1,-1,-1,-1,-1,-1,-1,-1,-1,-1,-1,-1,-1,-1,-1,-1,-1,-1,-1,-1,-1,-1,-1,-1,-1,-1,-1,-1,-1,-1,-1,-1,-1,-1,-1,-1,-1,-1,-1,-1,-1,-1],"split_conditions":[1.3E1,2E0,1.26796E3,3E0,4.1333163E2,2.8263962E2,5.1975415E2,1.0090525E4,1.7E1,8.0033516E3,8.30946E3,8.754566E3,5.853831E2,1.5E1,2E1,2.80587E3,1.4E1,6E0,1.2E1,3.2515363E2,1.06E0,3.476215E3,6.822538E2,1.2764858E3,7.1412674E1,4.2384023E3,1.083177E4,6E0,2.366E1,5.4683125E3,4.14415E3,3E0,4.055515E-1,7.2479424E0,1.1609196E4,1.7635136E1,1.4E1,8E0,8.216153E3,5.8805206E2,5.5232524E3,9.24282E3,1.2352547E4,-1.6900733E-1,5.1975415E2,5.3791E2,1.43418E3,8.037773E1,2.8E1,1.257E1,7E0,3.1E1,1.2E1,1.5049E2,4.97E0,1.48617E3,1.720959E2,7.6806123E3,2.5160458E1,3.39411E3,1.8E1,3.1422783E3,2.4E1,3.556565E-1,3.9251766E-1,3.244331E-1,3.757425E-1,2.4415655E-1,3.7229452E-1,2.415083E-1,2.769334E-1,1.4166127E-1,2.6693717E-1,-1.2911572E-1,5.0217804E-2,2.771326E-1,2.4991953E-3,7.901151E-2,-1.3446625E-1,2.978216E-1,-1.4283544E-1,-5.6083832E-2,2.3666675E-1,-7.948831E-2,2.2022024E-1,1.7930576E-1,3.6679566E-1,9.1061234E-2,-2.1167175E-1,2.8055826E-1,-1.59111E-1,-9.935057E-2,1.808702E-1,-1.303034E-1,-1.7815292E-1,6.245933E-2,-2.1445604E-1,-1.0972909E-1,4.0439473E-4,3.3940315E-1,6.970176E-2,-1.0154229E-1,3.9195072E-2,1.5173247E-1,3.6247832E-1,2.521119E-1,-1.8844202E-1,-5.249354E-2,-1.5037405E-1,-1.9529785E-1,-2.7370581E-2,-2.1242271E-1,-5.3484995E-2,-6.036306E-2,-1.7673922E-1,-1.7027779E-1,3.516688E-1,1.03739314E-1,-2.0262341E-1,-1.9500785E-1,3.200999E-1,-1.1944034E-2,-1.6881014E-1],"split_indices":[7,8,6,5,1,1,1,0,3,0,0,0,1,7,7,0,3,5,2,1,4,0,1,0,1,0,0,5,4,0,0,2,0,1,0,1,2,2,0,0,0,0,0,0,1,6,6,1,3,4,5,3,2,6,4,6,1,0,1,0,7,0,7,0,0,0,0,0,0,0,0,0,0,0,0,0,0,0,0,0,0,0,0,0,0,0,0,0,0,0,0,0,0,0,0,0,0,0,0,0,0,0,0,0,0,0,0,0,0,0,0,0,0,0,0,0,0,0,0,0,0,0,0],"split_type":[0,0,0,0,0,0,0,0,0,0,0,0,0,0,0,0,0,0,0,0,0,0,0,0,0,0,0,0,0,0,0,0,0,0,0,0,0,0,0,0,0,0,0,0,0,0,0,0,0,0,0,0,0,0,0,0,0,0,0,0,0,0,0,0,0,0,0,0,0,0,0,0,0,0,0,0,0,0,0,0,0,0,0,0,0,0,0,0,0,0,0,0,0,0,0,0,0,0,0,0,0,0,0,0,0,0,0,0,0,0,0,0,0,0,0,0,0,0,0,0,0,0,0],"sum_hessian":[4.444444E4,2.3941254E4,2.050319E4,1.7793758E4,6.1474956E3,4.940805E3,1.5562385E4,3.094238E3,1.469952E4,5.937202E3,2.1029361E2,4.5404653E3,4.0033954E2,1.543112E4,1.3126451E2,2.5921472E3,5.020907E2,1.2276633E4,2.4228867E3,5.033E3,9.042019E2,1.4425082E2,6.604278E1,4.0982397E3,4.4222595E2,3.078539E2,9.248563E1,4.152792E2,1.5015841E4,4.6290527E1,8.497398E1,8.821604E2,1.7099869E3,4.124693E2,8.96214E1,8.966085E3,3.3105476E3,1.4083295E3,1.0145573E3,4.9655117E3,6.748827E1,2.800609E1,8.761958E2,3.0183818E0,1.4123245E2,3.866446E1,2.7378317E1,6.412711E2,3.4569685E3,1.23540054E2,3.186859E2,6.7651436E1,2.4020248E2,7.8454254E1,1.4031371E1,2.5082889E2,1.6445032E2,1.316602E4,1.8498209E3,2.3900852E1,2.2389675E1,1.6204868E1,6.876911E1,1.7519987E2,7.069605E2,9.843667E1,3.1403265E2,4.6107304E1,4.3514095E1,2.1565334E3,6.809552E3,2.9827075E3,3.2784006E2,7.0333685E2,7.0499255E2,8.9868646E2,1.1587084E2,3.848608E1,4.927026E3,3.1616217E1,3.5872055E1,1.0294041E1,1.771205E1,8.678714E2,8.324391E0,3.2853016E1,1.0837943E2,2.278305E1,1.5881411E1,2.4963486E1,2.4148324E0,6.168406E2,2.4430489E1,3.0340994E3,4.228691E2,1.0320088E2,2.0339172E1,2.539871E2,6.469881E1,6.598462E1,1.6668161E0,5.9886425E1,1.8031606E2,5.552824E0,7.290143E1,8.876767E0,5.154604E0,1.6613393E2,8.4694954E1,1.3876787E2,2.5682457E1,1.3083949E4,8.207077E1,4.4657433E1,1.8051636E3,3.1116748E0,2.0789179E1,1.3334529E1,9.055145E0,6.50196E0,9.7029085E0,1.5852344E1,5.291677E1],"tree_param":{"num_deleted":"0","num_feature":"9","num_nodes":"123","size_leaf_vector":"1"}},{"base_weights":[-5.900794E-8,-3.924016E-1,8.781986E-1,-4.4570667E-1,1.2047682E0,1.0982871E0,6.140882E-1,1.1838254E0,-4.6319953E-1,1.2094197E0,-7.682154E-2,7.549901E-2,1.1557324E0,9.722367E-1,4.3339288E-1,9.584636E-2,1.1908817E0,-5.3356874E-1,-3.164757E-1,9.9526465E-1,1.2262825E0,4.2861667E-2,-1.1858888E-1,4.2187813E-1,-4.736626E-2,1.1609961E0,6.060841E-2,2.1185976E-1,1.0739814E0,4.154557E-1,9.7872496E-1,9.509337E-2,3.5852373E-1,-2.2469431E-1,-4.9537033E-1,1.3132791E-1,-4.9872994E-1,1.1351981E0,6.791082E-1,1.2392191E0,9.12107E-1,-2.059524E-1,5.5695736E-1,-2.3370673E-1,1.9800192E-1,1.0742378E0,1.1999791E0,-4.2444906E-1,6.618658E-1,-2.552756E-1,2.9673043E-1,1.1267467E0,8.423321E-1,4.4620308E-1,1.7759036E-1,2.618717E-1,1.2025443E0,-1.6228169E-1,-1.1757315E-1,1.1848279E-1,-1.1591735E-1,-1.5406424E-1,3.314026E-1,3.4884644E-1,1.608595E-1,5.8374897E-2,2.6779008E-1,3.7239173E-1,1.2035645E-1,1.10102974E-1,3.4908697E-1,1.8633553E-1,-1.3350004E-1,8.010717E-3,-1.15839384E-1,9.075122E-2,-1.3630253E-1,2.2086654E-2,3.2689738E-1,3.7190625E-1,3.5319245E-1,2.2303535E-1,-1.7459556E-1,3.2704324E-1,-2.8667338E-3,1.0318971E-1,-1.8735182E-1,1.7460054E-1,5.3755306E-2,2.9149023E-1,3.625849E-1,3.1473657E-1,1.3119048E-1,1.20500185E-1,1.60768E-1,-9.6463874E-2,9.929573E-2,3.492385E-1,-1.2077804E-2,2.6485437E-1,3.7544057E-1],"categories":[],"categories_nodes":[],"categories_segments":[],"categories_sizes":[],"default_left":[0,0,0,0,0,0,0,0,0,0,0,0,0,0,0,0,0,0,0,0,0,0,0,0,0,0,0,0,0,0,0,0,0,0,0,0,0,0,0,0,0,0,0,0,0,0,0,0,0,0,0,0,0,0,0,0,0,0,0,0,0,0,0,0,0,0,0,0,0,0,0,0,0,0,0,0,0,0,0,0,0,0,0,0,0,0,0,0,0,0,0,0,0,0,0,0,0,0,0,0,0],"id":1,"left_children":[1,3,5,7,9,11,13,15,17,19,21,23,25,27,29,-1,31,33,35,37,39,-1,-1,41,43,45,47,49,51,53,55,-1,-1,-1,57,59,61,63,65,67,69,-1,71,73,75,77,79,81,83,85,87,89,91,93,95,97,99,-1,-1,-1,-1,-1,-1,-1,-1,-1,-1,-1,-1,-1,-1,-1,-1,-1,-1,-1,-1,-1,-1,-1,-1,-1,-1,-1,-1,-1,-1,-1,-1,-1,-1,-1,-1,-1,-1,-1,-1,-1,-1,-1,-1],"loss_changes":[1.5316535E4,2.6159497E3,7.972129E2,8.479663E2,6.0091553E0,4.3974512E2,4.0350293E2,1.5469971E0,3.0352148E2,2.350586E0,3.7337604E-1,1.7007526E1,4.0786133E1,1.6163574E2,4.019043E1,0E0,7.696533E-1,1.6319238E2,7.783902E2,2.657341E0,2.578003E0,0E0,0E0,1.6045494E1,1.3559248E1,2.2567383E1,1.047654E1,9.914414E0,2.1603027E1,2.9321045E1,2.0772102E1,0E0,0E0,0E0,7.940137E1,3.767534E2,1.616073E2,2.4066925E-1,2.5435457E0,1.029541E0,5.0394363E0,0E0,6.3067226E0,6.6960297E0,8.870827E0,3.380957E1,2.9140625E0,4.104779E0,4.61145E0,8.775816E0,6.953306E0,1.7871582E1,2.8542725E1,1.4001221E1,3.546463E1,8.919907E0,4.573059E-1,0E0,0E0,0E0,0E0,0E0,0E0,0E0,0E0,0E0,0E0,0E0,0E0,0E0,0E0,0E0,0E0,0E0,0E0,0E0,0E0,0E0,0E0,0E0,0E0,0E0,0E0,0E0,0E0,0E0,0E0,0E0,0E0,0E0,0E0,0E0,0E0,0E0,0E0,0E0,0E0,0E0,0E0,0E0,0E0],"parents":[2147483647,0,0,1,1,2,2,3,3,4,4,5,5,6,6,7,7,8,8,9,9,10,10,11,11,12,12,13,13,14,14,16,16,17,17,18,18,19,19,20,20,23,23,24,24,25,25,26,26,27,27,28,28,29,29,30,30,34,34,35,35,36,36,37,37,38,38,39,39,40,40,42,42,43,43,44,44,45,45,46,46,47,47,48,48,49,49,50,50,51,51,52,52,53,53,54,54,55,55,56,56],"right_children":[2,4,6,8,10,12,14,16,18,20,22,24,26,28,30,-1,32,34,36,38,40,-1,-1,42,44,46,48,50,52,54,56,-1,-1,-1,58,60,62,64,66,68,70,-1,72,74,76,78,80,82,84,86,88,90,92,94,96,98,100,-1,-1,-1,-1,-1,-1,-1,-1,-1,-1,-1,-1,-1,-1,-1,-1,-1,-1,-1,-1,-1,-1,-1,-1,-1,-1,-1,-1,-1,-1,-1,-1,-1,-1,-1,-1,-1,-1,-1,-1,-1,-1,-1,-1],"split_conditions":[1.49407E3,2.1E1,1.491E1,1E0,5.1975415E2,1.5E1,2.60483E3,1.4285834E1,1.6E1,1.9873262E1,4.7E1,1E1,5.1975415E2,1.5E1,1E0,9.584636E-2,1.4E1,3E0,2E0,1.39664E3,2.9155002E2,4.2861667E-2,-1.1858888E-1,2E0,6E0,2.1E1,5.8097227E3,1.2764858E3,2.49734E3,2.979177E2,1.7E1,9.509337E-2,3.5852373E-1,-2.2469431E-1,6E0,1.3E1,8E0,2.4E1,3.2E1,2.417E1,5.040095E3,-2.059524E-1,1.394E1,9E0,2.41434E3,1.50749E3,5.82E0,3.39411E3,2.20917E3,2.0364334E1,1.7593E3,2.1E1,2E1,2.9051458E3,4.7957725E3,1.1E1,2.62781E3,-1.6228169E-1,-1.1757315E-1,1.1848279E-1,-1.1591735E-1,-1.5406424E-1,3.314026E-1,3.4884644E-1,1.608595E-1,5.8374897E-2,2.6779008E-1,3.7239173E-1,1.2035645E-1,1.10102974E-1,3.4908697E-1,1.8633553E-1,-1.3350004E-1,8.010717E-3,-1.15839384E-1,9.075122E-2,-1.3630253E-1,2.2086654E-2,3.2689738E-1,3.7190625E-1,3.5319245E-1,2.2303535E-1,-1.7459556E-1,3.2704324E-1,-2.8667338E-3,1.0318971E-1,-1.8735182E-1,1.7460054E-1,5.3755306E-2,2.9149023E-1,3.625849E-1,3.1473657E-1,1.3119048E-1,1.20500185E-1,1.60768E-1,-9.6463874E-2,9.929573E-2,3.492385E-1,-1.2077804E-2,2.6485437E-1,3.7544057E-1],"split_indices":[6,7,4,8,1,7,6,1,3,1,3,2,1,7,8,0,2,5,8,6,1,0,0,5,5,7,0,0,6,1,7,0,0,0,5,2,5,2,3,4,0,0,4,7,6,6,4,0,6,1,6,7,2,0,0,3,6,0,0,0,0,0,0,0,0,0,0,0,0,0,0,0,0,0,0,0,0,0,0,0,0,0,0,0,0,0,0,0,0,0,0,0,0,0,0,0,0,0,0,0,0],"split_type":[0,0,0,0,0,0,0,0,0,0,0,0,0,0,0,0,0,0,0,0,0,0,0,0,0,0,0,0,0,0,0,0,0,0,0,0,0,0,0,0,0,0,0,0,0,0,0,0,0,0,0,0,0,0,0,0,0,0,0,0,0,0,0,0,0,0,0,0,0,0,0,0,0,0,0,0,0,0,0,0,0,0,0,0,0,0,0,0,0,0,0,0,0,0,0,0,0,0,0,0,0],"sum_hessian":[4.444444E4,3.0718975E4,1.3725468E4,2.9727549E4,9.9142664E2,7.4849507E3,6.2405176E3,3.1502484E2,2.9412523E4,9.878974E2,3.5292728E0,3.9816254E2,7.086788E3,2.0912195E3,4.149298E3,2.9257233E0,3.1209912E2,1.9876877E4,9.5356455E3,7.6490845E1,9.1140656E2,2.4148324E0,1.1144404E0,1.03616234E2,2.945463E2,7.052829E3,3.3959057E1,2.471624E2,1.844057E3,4.0188704E3,1.3042772E2,1.8576121E0,3.1024152E2,2.9910173E3,1.688586E4,2.7584177E3,6.777228E3,5.122681E1,2.5264032E1,8.725344E2,3.8872135E1,1.0812504E1,9.280373E1,1.6743689E2,1.2710941E2,2.1954094E3,4.8574194E3,1.895854E1,1.5000519E1,3.7692394E1,2.0947E2,1.4987959E3,3.4526108E2,3.5580654E3,4.6080478E2,3.1549706E1,9.887801E1,1.1719709E4,5.166151E3,1.8279105E3,9.3050714E2,6.7158447E3,6.138313E1,4.8068806E1,3.158004E0,8.312608E0,1.6951424E1,8.6988727E2,2.647113E0,1.3049614E1,2.5822521E1,8.757584E1,5.227885E0,6.2124805E1,1.0531208E2,1.10020905E2,1.7088509E1,3.340668E1,2.1620027E3,1.7458583E3,3.1115613E3,1.8112829E0,1.7147257E1,8.777804E0,6.2227154E0,1.4396336E1,2.3296057E1,5.9972374E1,1.4949762E2,5.2223083E2,9.765651E2,2.275132E2,1.1774788E2,2.3811704E3,1.176895E3,1.0806702E2,3.5273776E2,7.198802E0,2.4350903E1,1.5651032E1,8.322698E1],"tree_param":{"num_deleted":"0","num_feature":"9","num_nodes":"101","size_leaf_vector":"1"}},{"base_weights":[-4.895324E-8,-3.0527717E-1,5.162218E-1,-3.9047506E-1,1.0719741E-1,7.9975796E-1,-2.752052E-1,-5.5833405E-1,-3.649002E-1,-4.186784E-1,1.791057E-1,8.523709E-1,-4.4609228E-1,3.661567E-1,-3.8198388E-1,-5.7999796E-1,-4.452888E-1,-3.1121308E-1,-4.5543754E-1,-2.2739139E-1,-4.694098E-1,1.1390377E-1,2.4391893E-1,8.8796526E-1,-1.3682428E-2,-4.6151188E-1,6.5571666E-1,1.319369E-1,4.5986488E-1,-2.3756836E-1,-4.633488E-1,-5.3656983E-1,-6.0206515E-1,-3.3452603E-1,-4.7743797E-1,-3.5698706E-1,-1.907757E-1,-4.5895836E-1,-1.271232E-1,-4.5736018E-1,-5.810192E-2,-4.7253367E-1,7.092796E-2,-1.1072755E-1,1.3598739E-1,2.861858E-1,5.905366E-2,8.967265E-1,-4.1614005E-1,3.3887887E-1,-2.2056745E-1,-5.067692E-1,-3.8558668E-1,3.2299685E-1,8.406539E-1,-8.695163E-2,5.5826795E-1,8.467947E-1,3.7615106E-1,-1.6117063E-1,-4.3777484E-1,-4.6666184E-1,8.800314E-2,-1.3246626E-1,-1.6778447E-1,-1.5302047E-1,-1.8287192E-1,-1.546663E-1,-6.973294E-2,1.349922E-2,-1.4487684E-1,-9.319382E-2,-1.10818E-1,-4.2233795E-2,-1.4127386E-1,-1.4591743E-1,-1.2985675E-1,-1.3051051E-1,7.160378E-2,-9.078023E-3,-1.4889346E-1,1.19886324E-1,-4.3081135E-2,-1.5667841E-1,-1.2864822E-1,6.283951E-2,-6.541555E-2,8.031083E-2,1.5972104E-2,4.965989E-2,1.0493979E-1,-3.7322614E-2,6.0374167E-2,2.7597633E-1,1.9111957E-1,-1.4687525E-1,3.3114424E-1,-1.097428E-2,1.5827696E-1,-1.3005102E-1,2.9104372E-2,-9.906269E-2,-1.6216166E-1,-1.350368E-1,-5.4901946E-2,8.083819E-3,1.472377E-1,6.566313E-2,2.9747164E-1,-5.399226E-2,6.342047E-2,-1.9902857E-1,2.2392696E-1,4.219538E-1,2.0735668E-1,4.4017896E-2,1.9805098E-1,1.9994386E-1,-5.5249453E-2,-7.813755E-2,-1.4120328E-1,-1.3293691E-1,-1.5234146E-1,2.7628487E-1,-7.5032145E-2],"categories":[],"categories_nodes":[],"categories_segments":[],"categories_sizes":[],"default_left":[0,0,0,0,0,0,0,0,0,0,0,0,0,0,0,0,0,0,0,0,0,0,0,0,0,0,0,0,0,0,0,0,0,0,0,0,0,0,0,0,0,0,0,0,0,0,0,0,0,0,0,0,0,0,0,0,0,0,0,0,0,0,0,0,0,0,0,0,0,0,0,0,0,0,0,0,0,0,0,0,0,0,0,0,0,0,0,0,0,0,0,0,0,0,0,0,0,0,0,0,0,0,0,0,0,0,0,0,0,0,0,0,0,0,0,0,0,0,0,0,0,0,0,0,0],"id":2,"left_children":[1,3,5,7,9,11,13,15,17,19,21,23,25,27,29,31,33,35,37,39,41,43,45,47,49,51,53,55,57,59,61,63,65,67,69,71,73,75,77,79,81,83,-1,85,87,89,91,93,95,97,99,101,103,105,107,109,111,113,115,117,119,121,123,-1,-1,-1,-1,-1,-1,-1,-1,-1,-1,-1,-1,-1,-1,-1,-1,-1,-1,-1,-1,-1,-1,-1,-1,-1,-1,-1,-1,-1,-1,-1,-1,-1,-1,-1,-1,-1,-1,-1,-1,-1,-1,-1,-1,-1,-1,-1,-1,-1,-1,-1,-1,-1,-1,-1,-1,-1,-1,-1,-1,-1,-1],"loss_changes":[7.0043467E3,9.815469E2,3.706545E3,9.917212E1,1.8091107E2,7.974746E2,2.9854123E2,7.232544E0,9.7513916E1,5.478554E0,1.7753311E1,3.5969922E2,8.6850815E0,1.3599998E1,4.3787598E1,2.133606E0,1.6072388E0,6.9478516E1,8.5842285E0,4.745832E0,1.1126938E0,1.0429413E1,1.6463799E1,1.2842578E2,3.3744076E1,1.4785995E0,1.7290163E-1,1.6776804E1,1.4067879E1,2.055288E1,4.4040527E0,1.6367493E0,8.574829E-1,2.0047255E0,1.1170197E0,5.1400146E0,4.8622833E1,5.0861816E0,9.194698E0,8.4726334E-1,2.8655415E0,7.5907135E-1,0E0,6.522285E0,2.0823826E1,1.3116104E1,1.0297168E1,6.646484E1,8.965792E0,1.214213E1,1.9755173E1,1.6224365E0,2.3509312E0,1.9562948E-1,1.6004276E-1,3.3493595E0,1.4505167E1,5.838772E0,2.3813438E1,1.8726072E1,2.04673E0,2.074463E0,4.485178E0,0E0,0E0,0E0,0E0,0E0,0E0,0E0,0E0,0E0,0E0,0E0,0E0,0E0,0E0,0E0,0E0,0E0,0E0,0E0,0E0,0E0,0E0,0E0,0E0,0E0,0E0,0E0,0E0,0E0,0E0,0E0,0E0,0E0,0E0,0E0,0E0,0E0,0E0,0E0,0E0,0E0,0E0,0E0,0E0,0E0,0E0,0E0,0E0,0E0,0E0,0E0,0E0,0E0,0E0,0E0,0E0,0E0,0E0,0E0,0E0,0E0,0E0],"parents":[2147483647,0,0,1,1,2,2,3,3,4,4,5,5,6,6,7,7,8,8,9,9,10,10,11,11,12,12,13,13,14,14,15,15,16,16,17,17,18,18,19,19,20,20,21,21,22,22,23,23,24,24,25,25,26,26,27,27,28,28,29,29,30,30,31,31,32,32,33,33,34,34,35,35,36,36,37,37,38,38,39,39,40,40,41,41,43,43,44,44,45,45,46,46,47,47,48,48,49,49,50,50,51,51,52,52,53,53,54,54,55,55,56,56,57,57,58,58,59,59,60,60,61,61,62,62],"right_children":[2,4,6,8,10,12,14,16,18,20,22,24,26,28,30,32,34,36,38,40,42,44,46,48,50,52,54,56,58,60,62,64,66,68,70,72,74,76,78,80,82,84,-1,86,88,90,92,94,96,98,100,102,104,106,108,110,112,114,116,118,120,122,124,-1,-1,-1,-1,-1,-1,-1,-1,-1,-1,-1,-1,-1,-1,-1,-1,-1,-1,-1,-1,-1,-1,-1,-1,-1,-1,-1,-1,-1,-1,-1,-1,-1,-1,-1,-1,-1,-1,-1,-1,-1,-1,-1,-1,-1,-1,-1,-1,-1,-1,-1,-1,-1,-1,-1,-1,-1,-1,-1,-1,-1,-1],"split_conditions":[2E0,1.491E1,1.49407E3,3E0,2.46937E3,2.1E1,1.5E1,1.0090525E4,1.3E1,1.2E1,2.5E1,3.8525504E2,3.2515363E2,1.1E1,2.1E1,2.80587E3,7.2479424E0,6E0,4.680146E2,4E0,5.1975415E2,7.512871E2,5.5E1,8E0,5.1975415E2,9.6604034E1,1.2E1,1.2E1,1.2764858E3,8E0,4.680146E2,3E0,1.75E0,6.164E2,1.052E1,1.2709243E1,1.8E1,5.69E0,1.39664E3,1.588E2,3E0,2.1E1,7.092796E-2,3.44238E3,1.6377809E3,7E0,8.853584E1,2.2632483E2,6.7116167E3,6.772775E3,8.754566E3,2.13106E1,3.1E1,5.5E1,4.4E1,1.4128944E2,1.1915153E1,1.66765E3,3.0819026E3,1.50749E3,1.6E1,3.06049E3,2.2E1,-1.3246626E-1,-1.6778447E-1,-1.5302047E-1,-1.8287192E-1,-1.546663E-1,-6.973294E-2,1.349922E-2,-1.4487684E-1,-9.319382E-2,-1.10818E-1,-4.2233795E-2,-1.4127386E-1,-1.4591743E-1,-1.2985675E-1,-1.3051051E-1,7.160378E-2,-9.078023E-3,-1.4889346E-1,1.19886324E-1,-4.3081135E-2,-1.5667841E-1,-1.2864822E-1,6.283951E-2,-6.541555E-2,8.031083E-2,1.5972104E-2,4.965989E-2,1.0493979E-1,-3.7322614E-2,6.0374167E-2,2.7597633E-1,1.9111957E-1,-1.4687525E-1,3.3114424E-1,-1.097428E-2,1.5827696E-1,-1.3005102E-1,2.9104372E-2,-9.906269E-2,-1.6216166E-1,-1.350368E-1,-5.4901946E-2,8.083819E-3,1.472377E-1,6.566313E-2,2.9747164E-1,-5.399226E-2,6.342047E-2,-1.9902857E-1,2.2392696E-1,4.219538E-1,2.0735668E-1,4.4017896E-2,1.9805098E-1,1.9994386E-1,-5.5249453E-2,-7.813755E-2,-1.4120328E-1,-1.3293691E-1,-1.5234146E-1,2.7628487E-1,-7.5032145E-2],"split_indices":[8,4,6,5,6,7,7,0,2,3,7,1,1,2,7,0,1,5,1,5,1,0,3,5,1,1,2,7,0,5,1,2,4,6,6,1,3,4,6,6,2,7,0,6,0,5,1,1,0,0,0,1,7,3,3,1,1,6,0,6,7,0,3,0,0,0,0,0,0,0,0,0,0,0,0,0,0,0,0,0,0,0,0,0,0,0,0,0,0,0,0,0,0,0,0,0,0,0,0,0,0,0,0,0,0,0,0,0,0,0,0,0,0,0,0,0,0,0,0,0,0,0,0,0,0],"split_type":[0,0,0,0,0,0,0,0,0,0,0,0,0,0,0,0,0,0,0,0,0,0,0,0,0,0,0,0,0,0,0,0,0,0,0,0,0,0,0,0,0,0,0,0,0,0,0,0,0,0,0,0,0,0,0,0,0,0,0,0,0,0,0,0,0,0,0,0,0,0,0,0,0,0,0,0,0,0,0,0,0,0,0,0,0,0,0,0,0,0,0,0,0,0,0,0,0,0,0,0,0,0,0,0,0,0,0,0,0,0,0,0,0,0,0,0,0,0,0,0,0,0,0,0,0],"sum_hessian":[4.444444E4,2.7928707E4,1.6515736E4,2.314756E4,4.781147E3,1.2159479E4,4.3562573E3,3.0577017E3,2.008986E4,5.7455084E2,4.206596E3,1.1667087E4,4.923922E2,6.21402E2,3.7348555E3,2.5624958E3,4.952057E2,1.2614255E4,7.475604E3,1.2158532E2,4.529655E2,2.0983843E3,2.108212E3,1.1206481E4,4.6060535E2,4.861695E2,6.2227154E0,1.7825893E2,4.4314304E2,1.3473494E3,2.387506E3,8.719051E2,1.6905908E3,1.1396616E2,3.8123953E2,9.138912E3,3.4753428E3,7.395893E3,7.97109E1,5.083187E1,7.075345E1,4.512987E2,1.6668161E0,1.8746846E2,1.9109158E3,1.71545E3,3.9276187E2,1.1132006E4,7.447486E1,1.7009738E2,2.9050797E2,3.010474E2,1.8512212E2,3.2043333E0,3.0183818E0,1.1831119E2,5.994773E1,7.720091E1,3.6594214E2,9.7651965E2,3.7082968E2,2.373398E3,1.4108036E1,1.721497E2,6.997554E2,1.3276147E2,1.5578293E3,3.963293E1,7.433324E1,3.8860078E0,3.7735352E2,1.9354554E3,7.2034565E3,2.9503018E3,5.2504114E2,3.5974465E3,3.7984465E3,4.3177372E1,3.6533524E1,4.3968987E0,4.643497E1,1.0558117E1,6.0195328E1,2.0598538E2,2.4531331E2,4.6823357E1,1.406451E2,7.364352E2,1.1744806E3,5.93461E2,1.1219889E3,1.7154913E2,2.2121272E2,1.0216831E4,9.151748E2,7.168877E1,2.786101E0,5.716599E1,1.129314E2,1.7368723E2,1.1682075E2,5.0065407E1,2.5098198E2,1.394694E2,4.5652706E1,1.579002E0,1.6253314E0,1.0681112E0,1.9502708E0,9.049334E1,2.7817852E1,7.6633635E0,5.228437E1,1.5044946E1,6.2155968E1,2.0326518E2,1.6267694E2,2.5640337E1,9.5087933E2,5.9436436E1,3.1139325E2,1.5171638E3,8.5623413E2,3.575602E0,1.0532434E1],"tree_param":{"num_deleted":"0","num_feature":"9","num_nodes":"125","size_leaf_vector":"1"}},{"base_weights":[-2.5416573E-3,3.706704E-1,-5.150162E-1,5.672855E-1,-2.9431468E-1,-2.7081606E-1,-5.9745115E-1,8.8711643E-1,4.974603E-1,-3.3059072E-1,5.841066E-1,-3.324654E-1,3.5428965E-1,-6.0298854E-1,-1.35258725E-2,9.009996E-1,8.053397E-1,5.532283E-1,1.9706538E-1,-3.5972005E-1,-1.7282094E-1,7.4865144E-1,1.9510119E-1,-3.5237092E-1,-1.18114546E-1,8.564307E-1,2.2476147E-1,-4.8498148E-1,-6.2265414E-1,3.5412222E-1,-2.3526424E-1,8.571402E-1,9.140012E-1,5.339664E-1,8.1696796E-1,6.200815E-1,3.6635607E-1,-3.819171E-1,4.0986377E-1,-3.6976537E-1,1.060091E-1,3.9981842E-1,-1.9289538E-1,-1.6354993E-1,7.762511E-1,-2.4804634E-1,4.8146126E-1,-3.1012535E-1,-4.2674515E-1,1.9651887E-1,-2.2425537E-1,8.920923E-1,3.3617172E-1,-5.0537888E-2,6.8838674E-1,-3.0428013E-1,-5.69988E-1,-6.599511E-1,-5.72579E-1,7.3075265E-1,-9.019063E-2,3.3420357E-1,-3.835876E-1,2.6648682E-1,2.2191434E-1,2.613223E-1,2.775499E-1,1.9658612E-1,-1.6526926E-1,2.389915E-1,2.9002002E-1,1.8310684E-1,2.4163929E-1,1.06138974E-1,2.987497E-1,-1.866661E-2,-1.7977771E-1,5.1464763E-2,1.8953721E-1,-9.204367E-2,-1.3283063E-1,2.3134421E-1,-7.991148E-2,-1.0594267E-1,1.7897329E-1,-6.903454E-2,1.349154E-2,1.3948062E-1,2.5848013E-1,1.9152446E-2,-1.9430648E-1,1.6537862E-1,-1.5131752E-1,-9.600738E-2,2.6998746E-1,-1.8013349E-1,-1.1221261E-1,1.2778498E-1,-1.5818013E-1,1.3285847E-1,-8.8719405E-2,2.9326296E-1,2.030129E-1,-1.6753867E-1,2.2727911E-1,-6.871591E-2,3.0514682E-2,3.0540195E-1,1.4188755E-1,-2.0056537E-1,-7.313981E-2,-1.761906E-1,-3.758458E-2,-1.9838606E-1,1.2598166E-1,-1.9325276E-1,-1.6073892E-1,-1.622906E-1,2.7399892E-1,7.6558985E-2,-1.9528244E-1,-1.758205E-1,2.5352952E-1,-1.5271236E-2,-1.4726113E-1],"categories":[],"categories_nodes":[],"categories_segments":[],"categories_sizes":[],"default_left":[0,0,0,0,0,0,0,0,0,0,0,0,0,0,0,0,0,0,0,0,0,0,0,0,0,0,0,0,0,0,0,0,0,0,0,0,0,0,0,0,0,0,0,0,0,0,0,0,0,0,0,0,0,0,0,0,0,0,0,0,0,0,0,0,0,0,0,0,0,0,0,0,0,0,0,0,0,0,0,0,0,0,0,0,0,0,0,0,0,0,0,0,0,0,0,0,0,0,0,0,0,0,0,0,0,0,0,0,0,0,0,0,0,0,0,0,0,0,0,0,0,0,0,0,0],"id":3,"left_children":[1,3,5,7,9,11,13,15,17,19,21,23,25,27,29,31,33,35,37,39,41,43,45,47,49,51,53,55,57,59,61,63,65,67,69,71,73,75,77,79,81,83,85,-1,87,89,91,93,95,97,99,101,103,105,107,109,111,113,115,117,119,121,123,-1,-1,-1,-1,-1,-1,-1,-1,-1,-1,-1,-1,-1,-1,-1,-1,-1,-1,-1,-1,-1,-1,-1,-1,-1,-1,-1,-1,-1,-1,-1,-1,-1,-1,-1,-1,-1,-1,-1,-1,-1,-1,-1,-1,-1,-1,-1,-1,-1,-1,-1,-1,-1,-1,-1,-1,-1,-1,-1,-1,-1,-1],"loss_changes":[8.294437E3,3.2809688E3,3.6770605E2,4.3206982E2,1.826814E2,1.7792001E2,4.416455E1,3.2131348E0,2.6623584E2,2.521582E1,1.4414734E1,1.7879211E1,2.6777397E1,3.1103516E1,1.0628712E1,9.030762E-1,1.182312E0,1.6728955E2,3.0706403E2,2.1756958E1,9.953781E0,6.1190796E0,8.87196E0,1.1941345E1,1.2012999E1,1.2710533E0,4.2280266E1,2.9589691E1,2.1279785E1,8.27665E0,6.9944925E0,1.8751221E0,2.8015137E-1,3.5147777E0,7.2161865E-1,1.7310547E1,2.7598999E1,4.6516205E1,9.625452E1,2.0749084E1,2.467409E1,4.570022E0,7.365343E0,0E0,3.7601013E0,3.4982338E0,3.1845798E0,2.968834E1,1.2494339E1,1.5325958E1,1.2931909E1,7.8575516E-1,3.0759397E0,5.6930103E0,8.279846E0,1.3541286E1,1.0063568E1,9.855469E0,1.271106E1,6.685425E0,4.698216E0,8.6442795E0,2.293477E0,0E0,0E0,0E0,0E0,0E0,0E0,0E0,0E0,0E0,0E0,0E0,0E0,0E0,0E0,0E0,0E0,0E0,0E0,0E0,0E0,0E0,0E0,0E0,0E0,0E0,0E0,0E0,0E0,0E0,0E0,0E0,0E0,0E0,0E0,0E0,0E0,0E0,0E0,0E0,0E0,0E0,0E0,0E0,0E0,0E0,0E0,0E0,0E0,0E0,0E0,0E0,0E0,0E0,0E0,0E0,0E0,0E0,0E0,0E0,0E0,0E0,0E0],"parents":[2147483647,0,0,1,1,2,2,3,3,4,4,5,5,6,6,7,7,8,8,9,9,10,10,11,11,12,12,13,13,14,14,15,15,16,16,17,17,18,18,19,19,20,20,21,21,22,22,23,23,24,24,25,25,26,26,27,27,28,28,29,29,30,30,31,31,32,32,33,33,34,34,35,35,36,36,37,37,38,38,39,39,40,40,41,41,42,42,44,44,45,45,46,46,47,47,48,48,49,49,50,50,51,51,52,52,53,53,54,54,55,55,56,56,57,57,58,58,59,59,60,60,61,61,62,62],"right_children":[2,4,6,8,10,12,14,16,18,20,22,24,26,28,30,32,34,36,38,40,42,44,46,48,50,52,54,56,58,60,62,64,66,68,70,72,74,76,78,80,82,84,86,-1,88,90,92,94,96,98,100,102,104,106,108,110,112,114,116,118,120,122,124,-1,-1,-1,-1,-1,-1,-1,-1,-1,-1,-1,-1,-1,-1,-1,-1,-1,-1,-1,-1,-1,-1,-1,-1,-1,-1,-1,-1,-1,-1,-1,-1,-1,-1,-1,-1,-1,-1,-1,-1,-1,-1,-1,-1,-1,-1,-1,-1,-1,-1,-1,-1,-1,-1,-1,-1,-1,-1,-1,-1,-1,-1],"split_conditions":[1.3E1,2E0,1.26796E3,3E0,4.1333163E2,2.8263962E2,5.1975415E2,1.0187667E4,1.7E1,8.0033516E3,8.30946E3,9.025106E3,4.2384023E3,1.7E1,2E1,3.1542E2,1.0285825E4,6E0,8E0,2.9155002E2,1.06E0,3.476215E3,5.853831E2,3.8691934E3,6.290314E1,8.4817E2,4.680146E2,1.49407E3,1.521E1,5.4683125E3,4.14415E3,2.4816E2,2.144964E3,1.6E1,1.29823E3,1.5E1,5.853831E2,2E1,1.3E1,2.7552314E3,4.45313E3,1.4E1,1.1395943E4,-1.6354993E-1,5.1975415E2,5.3791E2,1.43418E3,2.2040717E2,1.1E1,7.9672E2,9.145675E3,3.8525504E2,1.24763E3,8.900634E3,8.436298E3,1E0,2.687E1,1.0406643E4,2.60483E3,3.39411E3,2E1,3.1422783E3,2.4E1,2.6648682E-1,2.2191434E-1,2.613223E-1,2.775499E-1,1.9658612E-1,-1.6526926E-1,2.389915E-1,2.9002002E-1,1.8310684E-1,2.4163929E-1,1.06138974E-1,2.987497E-1,-1.866661E-2,-1.7977771E-1,5.1464763E-2,1.8953721E-1,-9.204367E-2,-1.3283063E-1,2.3134421E-1,-7.991148E-2,-1.0594267E-1,1.7897329E-1,-6.903454E-2,1.349154E-2,1.3948062E-1,2.5848013E-1,1.9152446E-2,-1.9430648E-1,1.6537862E-1,-1.5131752E-1,-9.600738E-2,2.6998746E-1,-1.8013349E-1,-1.1221261E-1,1.2778498E-1,-1.5818013E-1,1.3285847E-1,-8.8719405E-2,2.9326296E-1,2.030129E-1,-1.6753867E-1,2.2727911E-1,-6.871591E-2,3.0514682E-2,3.0540195E-1,1.4188755E-1,-2.0056537E-1,-7.313981E-2,-1.761906E-1,-3.758458E-2,-1.9838606E-1,1.2598166E-1,-1.9325276E-1,-1.6073892E-1,-1.622906E-1,2.7399892E-1,7.6558985E-2,-1.9528244E-1,-1.758205E-1,2.5352952E-1,-1.5271236E-2,-1.4726113E-1],"split_indices":[7,8,6,5,1,1,1,0,3,0,0,0,0,7,7,6,0,5,2,1,4,0,1,0,1,6,1,6,4,0,0,6,0,3,6,2,1,3,2,0,0,2,0,0,1,6,6,1,2,6,0,1,6,0,0,8,4,0,6,0,2,0,7,0,0,0,0,0,0,0,0,0,0,0,0,0,0,0,0,0,0,0,0,0,0,0,0,0,0,0,0,0,0,0,0,0,0,0,0,0,0,0,0,0,0,0,0,0,0,0,0,0,0,0,0,0,0,0,0,0,0,0,0,0,0],"split_type":[0,0,0,0,0,0,0,0,0,0,0,0,0,0,0,0,0,0,0,0,0,0,0,0,0,0,0,0,0,0,0,0,0,0,0,0,0,0,0,0,0,0,0,0,0,0,0,0,0,0,0,0,0,0,0,0,0,0,0,0,0,0,0,0,0,0,0,0,0,0,0,0,0,0,0,0,0,0,0,0,0,0,0,0,0,0,0,0,0,0,0,0,0,0,0,0,0,0,0,0,0,0,0,0,0,0,0,0,0,0,0,0,0,0,0,0,0,0,0,0,0,0,0,0,0],"sum_hessian":[4.3364957E4,2.5091922E4,1.8273037E4,1.936612E4,5.725803E3,4.6127607E3,1.3660275E4,3.4682522E3,1.5897867E4,5.4993223E3,2.2648112E2,4.1991035E3,4.136572E2,1.3531918E4,1.2835698E2,2.956339E3,5.1191293E2,1.3407866E4,2.4900002E3,4.6411396E3,8.581825E2,1.5850908E2,6.7972046E1,3.8417036E3,3.5739996E2,8.367252E1,3.2998468E2,1.936607E3,1.1595312E4,4.806572E1,8.029126E1,6.91287E2,2.2650522E3,2.2961926E1,4.8895102E2,9.873372E3,3.5344944E3,6.689969E2,1.8210034E3,4.54335E3,9.778965E1,2.8424837E1,8.297577E2,2.9190044E0,1.5559009E2,2.6734186E1,4.1237858E1,2.453342E3,1.3883615E3,8.993979E1,2.6746017E2,7.7636185E1,6.0363398E0,2.0760213E2,1.2238255E2,6.2103375E2,1.3155734E3,6.6385835E3,4.956728E3,2.5665325E1,2.2400394E1,1.6332312E1,6.3958946E1,5.411682E2,1.5011876E2,4.8383746E2,1.7812147E3,2.100851E1,1.9534138E0,4.3607587E2,5.287515E1,9.385302E3,4.8807104E2,3.466884E3,6.761035E1,2.712674E2,3.9772946E2,8.7893677E2,9.420667E2,2.442396E3,2.1009539E3,3.4713787E1,6.3075867E1,5.7242823E0,2.2700556E1,7.175182E2,1.1223949E2,3.4865166E1,1.20724915E2,1.5487618E1,1.1246568E1,3.892285E1,2.3150053E0,2.4341648E3,1.9177448E1,3.207697E2,1.0675918E3,6.8604515E1,2.1335272E1,2.5380135E1,2.4208003E2,5.305035E1,2.4585836E1,1.8288155E0,4.2075243E0,9.532751E1,1.1227461E2,4.6898773E1,7.548379E1,8.699794E1,5.3403577E2,1.2659644E3,4.9608994E1,6.630769E3,7.8144093E0,1.6766482E3,3.2800798E3,2.9756658E0,2.268966E1,1.4199374E1,8.201019E0,5.7777467E0,1.0554564E1,1.59555E1,4.800345E1],"tree_param":{"num_deleted":"0","num_feature":"9","num_nodes":"125","size_leaf_vector":"1"}},{"base_weights":[-1.5240695E-3,-3.2669726E-1,6.143959E-1,-3.7347063E-1,8.250048E-1,7.5431347E-1,4.404057E-1,8.084483E-1,-3.8894764E-1,8.279347E-1,-7.563576E-2,6.528867E-2,7.890217E-1,6.7711884E-1,3.160939E-1,6.0609907E-2,8.133333E-1,-6.7039067E-1,-3.5812327E-1,8.4294176E-1,6.785652E-1,1.0983545E-1,-1.0692187E-1,-1.5581028E-1,1.9676684E-1,7.9221773E-1,4.3820634E-2,1.7177087E-1,7.3923314E-1,3.2291147E-1,-4.143563E-1,6.743904E-2,8.160499E-1,-2.0149647E-1,1.8961586E-1,-4.1854197E-1,-2.529351E-1,7.106133E-1,8.564304E-1,7.17066E-1,-2.2103254E-1,9.438125E-3,4.4021394E-2,-2.0599543E-1,-2.681588E-2,6.564851E-1,7.488809E-2,7.932906E-1,-1.8840842E-1,-3.8100985E-1,5.1779956E-1,7.849939E-2,4.8144355E-1,6.177315E-1,7.86667E-1,3.0940267E-1,7.287047E-1,-5.058475E-1,5.0731546E-1,2.4590488E-1,1.3574629E-1,2.1994555E-1,-1.338091E-1,-1.3852218E-1,-9.703149E-2,4.0681876E-2,-1.2669356E-1,1.5121022E-1,2.4568288E-1,5.862492E-3,2.575898E-1,-3.326307E-2,2.2300176E-1,3.4031764E-2,-1.6096468E-1,8.288388E-2,-1.1310892E-1,2.3251162E-1,-1.7854011E-1,5.6429032E-2,-8.833844E-2,2.161938E-1,2.437244E-1,-1.7621098E-1,1.2368929E-1,2.4819751E-1,-3.1791485E-3,-1.2680286E-1,4.5618497E-2,2.3654409E-1,7.15536E-2,1.3360828E-1,2.4177115E-1,2.5178286E-1,1.8256098E-1,9.911524E-2,5.751596E-2,9.254473E-2,2.4805473E-1,-1.9277596E-1,1.04948774E-1,2.5798118E-1,-9.176421E-3],"categories":[],"categories_nodes":[],"categories_segments":[],"categories_sizes":[],"default_left":[0,0,0,0,0,0,0,0,0,0,0,0,0,0,0,0,0,0,0,0,0,0,0,0,0,0,0,0,0,0,0,0,0,0,0,0,0,0,0,0,0,0,0,0,0,0,0,0,0,0,0,0,0,0,0,0,0,0,0,0,0,0,0,0,0,0,0,0,0,0,0,0,0,0,0,0,0,0,0,0,0,0,0,0,0,0,0,0,0,0,0,0,0,0,0,0,0,0,0,0,0,0,0],"id":4,"left_children":[1,3,5,7,9,11,13,15,17,19,21,23,25,27,29,-1,31,33,35,37,39,41,-1,43,45,47,49,51,53,55,57,-1,59,-1,61,63,65,67,69,71,73,-1,-1,-1,75,77,79,81,-1,83,85,87,89,91,93,95,97,99,101,-1,-1,-1,-1,-1,-1,-1,-1,-1,-1,-1,-1,-1,-1,-1,-1,-1,-1,-1,-1,-1,-1,-1,-1,-1,-1,-1,-1,-1,-1,-1,-1,-1,-1,-1,-1,-1,-1,-1,-1,-1,-1,-1,-1],"loss_changes":[8.685612E3,1.5292539E3,3.6445605E2,4.9925537E2,2.9863892E0,1.9854004E2,1.9639551E2,8.809967E-1,2.3333179E2,1.9038696E0,2.739534E-1,1.1639106E1,1.8793945E1,7.206055E1,2.1959229E1,0E0,3.7573242E-1,3.015625E0,1.5412695E2,1.1755371E0,3.8286552E0,5.447861E-3,0E0,1.0216715E1,1.4006514E1,1.2493652E1,7.2088017E0,7.270701E0,1.1315674E1,2.3580444E1,3.711011E0,0E0,8.8409424E-2,0E0,1.9436513E0,6.317212E1,5.828929E2,1.7878151E0,1.645935E0,2.297985E0,6.00486E-1,0E0,0E0,0E0,1.2979002E1,8.242693E0,8.393816E0,1.0342773E1,0E0,3.3425293E0,2.7698908E0,7.2776628E0,4.166128E0,1.8441132E1,1.3256592E1,1.0318359E1,5.484787E0,4.6436634E0,8.2266843E-1,0E0,0E0,0E0,0E0,0E0,0E0,0E0,0E0,0E0,0E0,0E0,0E0,0E0,0E0,0E0,0E0,0E0,0E0,0E0,0E0,0E0,0E0,0E0,0E0,0E0,0E0,0E0,0E0,0E0,0E0,0E0,0E0,0E0,0E0,0E0,0E0,0E0,0E0,0E0,0E0,0E0,0E0,0E0,0E0],"parents":[2147483647,0,0,1,1,2,2,3,3,4,4,5,5,6,6,7,7,8,8,9,9,10,10,11,11,12,12,13,13,14,14,16,16,17,17,18,18,19,19,20,20,21,21,23,23,24,24,25,25,26,26,27,27,28,28,29,29,30,30,32,32,34,34,35,35,36,36,37,37,38,38,39,39,40,40,44,44,45,45,46,46,47,47,49,49,50,50,51,51,52,52,53,53,54,54,55,55,56,56,57,57,58,58],"right_children":[2,4,6,8,10,12,14,16,18,20,22,24,26,28,30,-1,32,34,36,38,40,42,-1,44,46,48,50,52,54,56,58,-1,60,-1,62,64,66,68,70,72,74,-1,-1,-1,76,78,80,82,-1,84,86,88,90,92,94,96,98,100,102,-1,-1,-1,-1,-1,-1,-1,-1,-1,-1,-1,-1,-1,-1,-1,-1,-1,-1,-1,-1,-1,-1,-1,-1,-1,-1,-1,-1,-1,-1,-1,-1,-1,-1,-1,-1,-1,-1,-1,-1,-1,-1,-1,-1],"split_conditions":[1.49407E3,2.1E1,1.491E1,1E0,5.1975415E2,1.5E1,2.60483E3,1.4285834E1,3E0,1.46506E3,4.7E1,5E0,5.1975415E2,1.5E1,5.853831E2,6.0609907E-2,1.4E1,2.5E1,1.6E1,2.13106E1,3.1188474E2,4.4E1,-1.0692187E-1,2E0,9E0,7.2982524E3,5.8097227E3,1.944E1,2E1,1E0,1.0910109E3,6.743904E-2,6.2E1,-2.0149647E-1,1E1,6E0,2E0,8.8725165E2,5.7E-1,4E0,2.1E1,9.438125E-3,4.4021394E-2,-2.0599543E-1,2.1561E3,1.394E1,1.4670125E2,1.9E1,-1.8840842E-1,8.214145E2,2.20917E3,1.2421562E3,5E0,7E0,2E1,2.6328033E2,1.6E1,5.1E1,2.88207E3,2.4590488E-1,1.3574629E-1,2.1994555E-1,-1.338091E-1,-1.3852218E-1,-9.703149E-2,4.0681876E-2,-1.2669356E-1,1.5121022E-1,2.4568288E-1,5.862492E-3,2.575898E-1,-3.326307E-2,2.2300176E-1,3.4031764E-2,-1.6096468E-1,8.288388E-2,-1.1310892E-1,2.3251162E-1,-1.7854011E-1,5.6429032E-2,-8.833844E-2,2.161938E-1,2.437244E-1,-1.7621098E-1,1.2368929E-1,2.4819751E-1,-3.1791485E-3,-1.2680286E-1,4.5618497E-2,2.3654409E-1,7.15536E-2,1.3360828E-1,2.4177115E-1,2.5178286E-1,1.8256098E-1,9.911524E-2,5.751596E-2,9.254473E-2,2.4805473E-1,-1.9277596E-1,1.04948774E-1,2.5798118E-1,-9.176421E-3],"split_indices":[6,7,4,8,1,7,6,1,5,6,3,5,1,7,1,0,2,3,3,1,1,3,0,8,2,0,0,4,7,8,1,0,3,0,7,5,8,0,4,5,2,0,0,0,6,4,1,7,0,1,6,0,5,5,2,1,7,3,6,0,0,0,0,0,0,0,0,0,0,0,0,0,0,0,0,0,0,0,0,0,0,0,0,0,0,0,0,0,0,0,0,0,0,0,0,0,0,0,0,0,0,0,0],"split_type":[0,0,0,0,0,0,0,0,0,0,0,0,0,0,0,0,0,0,0,0,0,0,0,0,0,0,0,0,0,0,0,0,0,0,0,0,0,0,0,0,0,0,0,0,0,0,0,0,0,0,0,0,0,0,0,0,0,0,0,0,0,0,0,0,0,0,0,0,0,0,0,0,0,0,0,0,0,0,0,0,0,0,0,0,0,0,0,0,0,0,0,0,0,0,0,0,0,0,0,0,0,0,0],"sum_hessian":[4.33652E4,2.8381656E4,1.4983545E4,2.7274643E4,1.1070131E3,8.303106E3,6.680438E3,3.518773E2,2.6922766E4,1.103504E3,3.5090377E0,3.9833173E2,7.9047744E3,2.298746E3,4.3816924E3,3.1503527E0,3.4872696E2,2.6555366E3,2.4267229E4,9.985381E2,1.0496595E2,2.4797635E0,1.0292742E0,1.4847131E2,2.498604E2,7.870954E3,3.3820675E1,2.5203242E2,2.0467135E3,4.341727E3,3.9965218E1,1.9870958E0,3.4673984E2,2.6518574E3,3.6791883E0,1.5411872E4,8.855356E3,9.733444E1,9.012037E2,1.00852585E2,4.1133666E0,1.3868483E0,1.0929153E0,2.8180223E1,1.202911E2,5.1441235E1,1.9841916E2,7.8654536E3,5.5002503E0,1.793846E1,1.58822155E1,1.9465657E2,5.737585E1,5.786154E2,1.4680981E3,4.2035537E3,1.3817336E2,3.6766678E1,3.1985404E0,3.4206705E2,4.6727962E0,1.9006023E0,1.7785859E0,1.0595337E4,4.816535E3,2.6884324E3,6.1669243E3,3.542791E1,6.1906532E1,2.3911524E0,8.988125E2,3.002885E0,9.78497E1,2.3075986E0,1.805768E0,6.4596565E1,5.5694527E1,4.7338123E1,4.10311E0,1.5224542E2,4.617374E1,1.647173E3,6.218281E3,1.4441452E1,3.4970062E0,9.658632E0,6.2235827E0,2.4307192E1,1.7034938E2,2.435205E1,3.30238E1,3.0374448E2,2.7487094E2,1.1305029E3,3.3759515E2,3.5659753E3,6.3757837E2,2.694532E1,1.1122803E2,3.1915535E1,4.851142E0,1.5703905E0,1.62815E0],"tree_param":{"num_deleted":"0","num_feature":"9","num_nodes":"103","size_leaf_vector":"1"}},{"base_weights":[4.0456755E-3,-2.4280952E-1,3.7848753E-1,-3.170517E-1,8.6718164E-2,5.630701E-1,-2.052074E-1,-4.6922627E-1,-2.9498726E-1,-3.231785E-1,1.4198332E-1,5.954109E-1,-3.6285892E-1,2.7931672E-1,-3.0087486E-1,-4.904677E-1,-3.6180753E-1,-2.4957006E-1,-3.7423807E-1,-3.2926682E-1,2.8287053E-1,8.524732E-2,1.9807597E-1,6.1377186E-1,-1.2565014E-1,-3.775688E-1,5.3512377E-1,4.2450708E-1,1.7649704E-1,-1.7103417E-1,-3.787673E-1,-4.3076637E-1,-5.0829333E-1,-3.4659672E-1,-1.8483478E-1,-2.874871E-1,-1.5351239E-1,-4.266858E-1,-3.5478827E-1,-1.6631936E-1,-3.6993137E-1,2.3591752E-1,5.4448165E-2,5.4701054E-1,1.7944898E-1,6.181473E-1,-6.811773E-1,-3.2303405E-1,1.2082636E-1,-4.2563587E-1,-2.9933366E-1,2.672224E-1,6.816562E-1,3.1281188E-1,8.9447874E-1,-1.475829E-1,3.655387E-1,-1.0164279E-1,-3.6301127E-1,-3.819152E-1,1.05175294E-1,-1.4220995E-1,-8.2763396E-2,-1.3270485E-1,-1.579133E-1,-7.984389E-2,-1.1669635E-1,-8.332338E-2,-1.0706475E-1,-3.3301562E-2,-1.2136326E-1,-1.3163392E-1,-4.2637385E-2,-1.076215E-1,1.2919578E-1,-7.8375876E-2,5.562192E-2,-1.2028179E-1,-5.1768783E-2,4.483034E-2,2.0702113E-1,-6.705382E-2,2.1774506E-2,1.2387737E-1,3.5497206E-1,-8.1342675E-2,6.099977E-2,1.91371E-1,1.2752704E-1,-1.3481109E-1,-2.213752E-1,2.7983966E-1,-1.0628236E-1,1.3471092E-1,-5.791678E-2,-7.748244E-2,-1.3786872E-1,-1.090151E-1,-3.184011E-2,2.5572544E-3,1.2521583E-1,5.4857846E-2,2.3981208E-1,1.3851108E-1,3.4073442E-2,3.8259193E-2,3.0584577E-1,5.835917E-3,-1.2153786E-1,1.3868576E-1,-2.8597018E-2,2.4923062E-1,-3.5203464E-2,-1.2810847E-1,-8.1743136E-2,-1.0763183E-1,-1.2739193E-1,2.2920163E-1,-5.8582626E-2],"categories":[],"categories_nodes":[],"categories_segments":[],"categories_sizes":[],"default_left":[0,0,0,0,0,0,0,0,0,0,0,0,0,0,0,0,0,0,0,0,0,0,0,0,0,0,0,0,0,0,0,0,0,0,0,0,0,0,0,0,0,0,0,0,0,0,0,0,0,0,0,0,0,0,0,0,0,0,0,0,0,0,0,0,0,0,0,0,0,0,0,0,0,0,0,0,0,0,0,0,0,0,0,0,0,0,0,0,0,0,0,0,0,0,0,0,0,0,0,0,0,0,0,0,0,0,0,0,0,0,0,0,0,0,0,0,0,0,0],"id":5,"left_children":[1,3,5,7,9,11,13,15,17,19,21,23,25,27,29,31,33,35,37,39,-1,41,43,45,47,49,51,53,55,57,59,61,63,65,-1,67,69,71,73,75,77,79,81,83,85,87,89,91,93,95,97,99,101,103,105,107,109,111,113,115,117,-1,-1,-1,-1,-1,-1,-1,-1,-1,-1,-1,-1,-1,-1,-1,-1,-1,-1,-1,-1,-1,-1,-1,-1,-1,-1,-1,-1,-1,-1,-1,-1,-1,-1,-1,-1,-1,-1,-1,-1,-1,-1,-1,-1,-1,-1,-1,-1,-1,-1,-1,-1,-1,-1,-1,-1,-1,-1],"loss_changes":[4.0283926E3,6.4261633E2,1.865742E3,7.183765E1,1.0946762E2,3.9417627E2,1.9295941E2,6.0126343E0,6.730298E1,4.7364845E0,1.3531387E1,1.6838184E2,6.075203E0,1.0175274E1,3.508377E1,2.1884766E0,1.5337372E0,4.3320557E1,6.805176E0,3.7298698E0,0E0,9.816669E0,1.3810699E1,7.066211E1,1.543684E1,1.519886E0,1.1539769E-1,1.462561E1,2.478494E1,1.734724E1,3.3480835E0,3.3988724E0,1.8379517E0,1.3577957E0,0E0,5.6714478E0,3.5934097E1,6.26947E0,1.5606873E1,3.9247875E0,2.728218E0,1.4005093E1,8.887305E0,8.721325E0,2.1933708E1,4.6853516E1,2.2373772E-1,7.2363987E0,1.4661253E1,1.4085007E0,2.0660553E0,1.6444686E-1,1.0366511E-1,6.798815E0,5.0459785E0,6.436308E0,1.1424606E1,1.4151104E1,1.8893623E0,1.980957E0,3.0821972E0,0E0,0E0,0E0,0E0,0E0,0E0,0E0,0E0,0E0,0E0,0E0,0E0,0E0,0E0,0E0,0E0,0E0,0E0,0E0,0E0,0E0,0E0,0E0,0E0,0E0,0E0,0E0,0E0,0E0,0E0,0E0,0E0,0E0,0E0,0E0,0E0,0E0,0E0,0E0,0E0,0E0,0E0,0E0,0E0,0E0,0E0,0E0,0E0,0E0,0E0,0E0,0E0,0E0,0E0,0E0,0E0,0E0,0E0],"parents":[2147483647,0,0,1,1,2,2,3,3,4,4,5,5,6,6,7,7,8,8,9,9,10,10,11,11,12,12,13,13,14,14,15,15,16,16,17,17,18,18,19,19,21,21,22,22,23,23,24,24,25,25,26,26,27,27,28,28,29,29,30,30,31,31,32,32,33,33,35,35,36,36,37,37,38,38,39,39,40,40,41,41,42,42,43,43,44,44,45,45,46,46,47,47,48,48,49,49,50,50,51,51,52,52,53,53,54,54,55,55,56,56,57,57,58,58,59,59,60,60],"right_children":[2,4,6,8,10,12,14,16,18,20,22,24,26,28,30,32,34,36,38,40,-1,42,44,46,48,50,52,54,56,58,60,62,64,66,-1,68,70,72,74,76,78,80,82,84,86,88,90,92,94,96,98,100,102,104,106,108,110,112,114,116,118,-1,-1,-1,-1,-1,-1,-1,-1,-1,-1,-1,-1,-1,-1,-1,-1,-1,-1,-1,-1,-1,-1,-1,-1,-1,-1,-1,-1,-1,-1,-1,-1,-1,-1,-1,-1,-1,-1,-1,-1,-1,-1,-1,-1,-1,-1,-1,-1,-1,-1,-1,-1,-1,-1,-1,-1,-1,-1],"split_conditions":[2E0,1.491E1,1.48617E3,3E0,2.5188E3,2.1E1,1.5E1,1.0090525E4,1.3E1,2.687E1,2.5E1,4.680146E2,3.2515363E2,1.7084045E3,2.1E1,3.1542E2,1.42736E3,6E0,1.32396E3,1.2E1,2.8287053E-1,1.7E1,6.5645667E2,3.6E1,8.436298E3,9.6604034E1,1.2E1,1.532043E3,3.0819026E3,8E0,4.680146E2,2.4816E2,2.144964E3,8.475534E1,-1.8483478E-1,1.6E1,1.8E1,1.0187667E4,5.1975415E2,6E0,2.39346E3,2.5246481E2,6.2562E2,4.5165718E1,7.8024414E2,9.025106E3,9.347125E2,2.7815266E3,6.822538E2,2.13106E1,3.1E1,5.5E1,4.4E1,1.2764858E3,9E0,2.09784E3,2.562692E2,1.2709243E1,2.12894E3,3.1677266E3,2.2E1,-1.4220995E-1,-8.2763396E-2,-1.3270485E-1,-1.579133E-1,-7.984389E-2,-1.1669635E-1,-8.332338E-2,-1.0706475E-1,-3.3301562E-2,-1.2136326E-1,-1.3163392E-1,-4.2637385E-2,-1.076215E-1,1.2919578E-1,-7.8375876E-2,5.562192E-2,-1.2028179E-1,-5.1768783E-2,4.483034E-2,2.0702113E-1,-6.705382E-2,2.1774506E-2,1.2387737E-1,3.5497206E-1,-8.1342675E-2,6.099977E-2,1.91371E-1,1.2752704E-1,-1.3481109E-1,-2.213752E-1,2.7983966E-1,-1.0628236E-1,1.3471092E-1,-5.791678E-2,-7.748244E-2,-1.3786872E-1,-1.090151E-1,-3.184011E-2,2.5572544E-3,1.2521583E-1,5.4857846E-2,2.3981208E-1,1.3851108E-1,3.4073442E-2,3.8259193E-2,3.0584577E-1,5.835917E-3,-1.2153786E-1,1.3868576E-1,-2.8597018E-2,2.4923062E-1,-3.5203464E-2,-1.2810847E-1,-8.1743136E-2,-1.0763183E-1,-1.2739193E-1,2.2920163E-1,-5.8582626E-2],"split_indices":[8,4,6,5,6,7,7,0,2,4,7,1,1,0,7,6,6,5,6,3,0,7,0,3,0,1,2,0,0,5,1,6,0,1,0,3,3,0,1,5,6,1,0,1,0,0,0,0,1,1,7,3,3,0,2,6,1,1,6,0,3,0,0,0,0,0,0,0,0,0,0,0,0,0,0,0,0,0,0,0,0,0,0,0,0,0,0,0,0,0,0,0,0,0,0,0,0,0,0,0,0,0,0,0,0,0,0,0,0,0,0,0,0,0,0,0,0,0,0],"split_type":[0,0,0,0,0,0,0,0,0,0,0,0,0,0,0,0,0,0,0,0,0,0,0,0,0,0,0,0,0,0,0,0,0,0,0,0,0,0,0,0,0,0,0,0,0,0,0,0,0,0,0,0,0,0,0,0,0,0,0,0,0,0,0,0,0,0,0,0,0,0,0,0,0,0,0,0,0,0,0,0,0,0,0,0,0,0,0,0,0,0,0,0,0,0,0,0,0,0,0,0,0,0,0,0,0,0,0,0,0,0,0,0,0,0,0,0,0,0,0],"sum_hessian":[4.35798E4,2.6264785E4,1.7315018E4,2.1435443E4,4.8293423E3,1.3155022E4,4.159994E3,2.7118735E3,1.872357E4,5.731906E2,4.256152E3,1.2711397E4,4.4362582E2,6.856225E2,3.4743713E3,2.2611736E3,4.5069983E2,1.1905111E4,6.818458E3,5.7118384E2,2.0067668E0,2.1171948E3,2.138957E3,1.2395898E4,3.154985E2,4.370461E2,6.5797243E0,2.8294742E2,4.0267508E2,1.3039626E3,2.1704087E3,5.256949E2,1.7354788E3,4.2749326E2,2.3206554E1,8.534342E3,3.3707703E3,1.8388733E3,4.9795845E3,1.15091095E2,4.5609277E2,3.582021E2,1.7589927E3,1.0695883E2,2.0319983E3,1.2354677E4,4.122216E1,1.7502443E2,1.4047409E2,2.679681E2,1.6907797E2,3.324772E0,3.2549524E0,2.2995992E2,5.298752E1,1.484323E2,2.5424278E2,9.588936E2,3.45069E2,2.1565916E3,1.38172035E1,4.0929993E2,1.1639497E2,3.789837E2,1.3564951E3,1.5003436E2,2.774589E2,7.4880835E3,1.046258E3,2.8838845E3,4.868857E2,1.763387E3,7.548643E1,4.9552075E3,2.4376808E1,9.083203E1,2.425906E1,3.932753E2,6.281748E1,3.0201855E2,5.6183514E1,1.07031235E2,1.6519614E3,8.970288E1,1.7255947E1,1.0176333E2,1.930235E3,1.1205674E4,1.1490023E3,9.859935E0,3.1362226E1,3.5478055E0,1.7147662E2,6.845928E1,7.201482E1,4.661701E1,2.2135112E2,1.2631946E2,4.2758522E1,1.6092175E0,1.7155542E0,1.1090441E0,2.1459084E0,1.3085313E2,9.910677E1,7.7093005E0,4.5278217E1,9.0597534E1,5.7834766E1,2.101282E2,4.4114574E1,1.502095E1,9.438727E2,1.9995996E2,1.4510902E2,1.404966E3,7.516257E2,3.8443732E0,9.97283E0],"tree_param":{"num_deleted":"0","num_feature":"9","num_nodes":"119","size_leaf_vector":"1"}},{"base_weights":[-5.8174566E-3,2.8336498E-1,-4.541111E-1,4.242173E-1,-2.3733017E-1,-2.1412899E-1,-5.413554E-1,6.863136E-1,3.6948144E-1,-2.6863378E-1,4.6065772E-1,-2.697006E-1,3.0589765E-1,-5.469423E-1,-1.154678E-2,6.999548E-1,6.158197E-1,4.0124992E-1,7.519952E-2,-2.957577E-1,-1.2764598E-1,5.904422E-1,1.5224567E-1,-2.895571E-1,-9.9294655E-2,7.2802013E-1,1.9371888E-1,-4.2269465E-1,-5.684046E-1,1.701636E-1,-3.251183E-1,6.6212964E-1,7.1108717E-1,6.513884E-1,5.594334E-1,4.5075208E-1,2.6861477E-1,-2.6974234E-1,4.3137538E-1,-3.0531952E-1,1.2097999E-1,3.5777187E-1,-1.4574878E-1,-1.4846642E-1,6.1169124E-1,3.8225988E-1,-2.4585631E-1,-1.5093723E-1,-3.1590664E-1,-2.1943198E-1,5.505839E-2,8.1037265E-1,5.1035434E-1,-1.9557517E-2,5.359367E-1,-2.4398282E-1,-5.117689E-1,-6.089945E-1,-5.160304E-1,-2.2290716E-1,3.8479337E-1,3.11688E-1,-4.3042788E-1,2.0654076E-1,1.7027539E-1,2.014903E-1,2.1651044E-1,4.8296645E-2,1.9719595E-1,9.134899E-2,1.7792991E-1,1.3347028E-1,2.2785847E-1,6.1409604E-2,1.328793E-1,-1.7519799E-1,-1.3826503E-2,1.613477E-1,-1.4218193E-3,-7.317672E-2,-1.1341424E-1,1.387142E-1,-1.4996336E-1,-3.830837E-2,1.7953677E-1,-2.9518042E-2,-9.6200295E-2,2.0687282E-1,1.01182766E-1,1.3488857E-1,-1.725321E-1,-1.9400392E-1,8.4074885E-2,-5.6481905E-2,1.9753541E-1,-5.163633E-2,-1.02638476E-1,-1.0742272E-1,9.061544E-2,4.9758583E-2,-1.0250315E-1,-9.61678E-3,2.5344056E-1,7.46554E-2,2.2728658E-1,-1.15621306E-1,1.3251602E-2,2.1585822E-1,5.9817288E-2,-4.824157E-2,-1.6066486E-1,-1.5914473E-1,-2.0790769E-2,-1.8314104E-1,1.09795496E-1,-1.7750078E-1,-1.4369437E-1,-1.752496E-1,7.6856926E-2,-1.5460347E-1,1.4228769E-1,-1.5746959E-2,1.5350564E-1,8.364414E-3,-1.5980676E-1],"categories":[],"categories_nodes":[],"categories_segments":[],"categories_sizes":[],"default_left":[0,0,0,0,0,0,0,0,0,0,0,0,0,0,0,0,0,0,0,0,0,0,0,0,0,0,0,0,0,0,0,0,0,0,0,0,0,0,0,0,0,0,0,0,0,0,0,0,0,0,0,0,0,0,0,0,0,0,0,0,0,0,0,0,0,0,0,0,0,0,0,0,0,0,0,0,0,0,0,0,0,0,0,0,0,0,0,0,0,0,0,0,0,0,0,0,0,0,0,0,0,0,0,0,0,0,0,0,0,0,0,0,0,0,0,0,0,0,0,0,0,0,0,0,0],"id":6,"left_children":[1,3,5,7,9,11,13,15,17,19,21,23,25,27,29,31,33,35,37,39,41,43,45,47,49,51,53,55,57,59,61,63,65,67,69,71,73,75,77,79,81,83,85,-1,87,89,91,93,95,97,99,101,103,105,107,109,111,113,115,117,119,121,123,-1,-1,-1,-1,-1,-1,-1,-1,-1,-1,-1,-1,-1,-1,-1,-1,-1,-1,-1,-1,-1,-1,-1,-1,-1,-1,-1,-1,-1,-1,-1,-1,-1,-1,-1,-1,-1,-1,-1,-1,-1,-1,-1,-1,-1,-1,-1,-1,-1,-1,-1,-1,-1,-1,-1,-1,-1,-1,-1,-1,-1,-1],"loss_changes":[5.3169717E3,1.8285896E3,3.366045E2,2.8126562E2,1.1611954E2,1.24044464E2,3.4903564E1,2.8276367E0,1.5175342E2,1.9395111E1,9.045952E0,1.308606E1,1.9491825E1,3.088208E1,7.1260524E0,7.2180176E-1,7.542877E-1,9.608887E1,1.9461856E2,1.7015778E1,7.2723217E0,3.999466E0,6.407464E0,1.2630035E1,7.541293E0,1.1402931E0,2.4017319E1,2.7302368E1,2.0835693E1,6.769308E0,3.2103648E0,1.2491455E0,4.2590332E-1,8.7138367E-1,1.731987E0,1.8938477E1,4.430899E1,5.654137E1,3.6179443E1,1.8508698E1,2.0640549E1,3.5618477E0,6.5356407E0,0E0,3.1371193E0,3.1022825E0,5.6338463E0,1.6934883E1,1.0933746E1,1.6630306E1,7.903808E0,1.8018456E0,1.5246973E0,4.763982E0,7.6614532E0,1.3859249E1,9.476593E0,8.279541E0,1.1908081E1,5.101941E0,4.4021044E0,5.4320717E-1,1.8793206E0,0E0,0E0,0E0,0E0,0E0,0E0,0E0,0E0,0E0,0E0,0E0,0E0,0E0,0E0,0E0,0E0,0E0,0E0,0E0,0E0,0E0,0E0,0E0,0E0,0E0,0E0,0E0,0E0,0E0,0E0,0E0,0E0,0E0,0E0,0E0,0E0,0E0,0E0,0E0,0E0,0E0,0E0,0E0,0E0,0E0,0E0,0E0,0E0,0E0,0E0,0E0,0E0,0E0,0E0,0E0,0E0,0E0,0E0,0E0,0E0,0E0,0E0],"parents":[2147483647,0,0,1,1,2,2,3,3,4,4,5,5,6,6,7,7,8,8,9,9,10,10,11,11,12,12,13,13,14,14,15,15,16,16,17,17,18,18,19,19,20,20,21,21,22,22,23,23,24,24,25,25,26,26,27,27,28,28,29,29,30,30,31,31,32,32,33,33,34,34,35,35,36,36,37,37,38,38,39,39,40,40,41,41,42,42,44,44,45,45,46,46,47,47,48,48,49,49,50,50,51,51,52,52,53,53,54,54,55,55,56,56,57,57,58,58,59,59,60,60,61,61,62,62],"right_children":[2,4,6,8,10,12,14,16,18,20,22,24,26,28,30,32,34,36,38,40,42,44,46,48,50,52,54,56,58,60,62,64,66,68,70,72,74,76,78,80,82,84,86,-1,88,90,92,94,96,98,100,102,104,106,108,110,112,114,116,118,120,122,124,-1,-1,-1,-1,-1,-1,-1,-1,-1,-1,-1,-1,-1,-1,-1,-1,-1,-1,-1,-1,-1,-1,-1,-1,-1,-1,-1,-1,-1,-1,-1,-1,-1,-1,-1,-1,-1,-1,-1,-1,-1,-1,-1,-1,-1,-1,-1,-1,-1,-1,-1,-1,-1,-1,-1,-1,-1,-1,-1,-1,-1,-1],"split_conditions":[1.3E1,2E0,1.26796E3,3E0,4.1333163E2,2.8263962E2,5.1975415E2,1.0090525E4,2.1E1,8.0033516E3,8.30946E3,8.754566E3,4.2384023E3,1.7E1,5.94732E3,3.1542E2,6.67E0,6E0,1.2E1,2.9155002E2,1.06E0,3.476215E3,6.0535E2,1.2764858E3,1.8E1,3.8525504E2,4.680146E2,1.49407E3,1.521E1,1.597E1,1.8E1,2.4816E2,2.144964E3,1.052E1,7.38E0,5.853831E2,1.1E1,8E0,6.8412686E3,2.7552314E3,6.114132E3,9.24282E3,1.1E1,-1.4846642E-1,2.8E1,1.989E1,1.35184E3,8.037773E1,7.2479424E0,7E0,1.349E1,1E1,1.7E1,7.2351934E3,1.047E1,2.8E1,2.687E1,1.0406643E4,2.60483E3,9E0,3.1422783E3,4.35E0,1.32396E3,2.0654076E-1,1.7027539E-1,2.014903E-1,2.1651044E-1,4.8296645E-2,1.9719595E-1,9.134899E-2,1.7792991E-1,1.3347028E-1,2.2785847E-1,6.1409604E-2,1.328793E-1,-1.7519799E-1,-1.3826503E-2,1.613477E-1,-1.4218193E-3,-7.317672E-2,-1.1341424E-1,1.387142E-1,-1.4996336E-1,-3.830837E-2,1.7953677E-1,-2.9518042E-2,-9.6200295E-2,2.0687282E-1,1.01182766E-1,1.3488857E-1,-1.725321E-1,-1.9400392E-1,8.4074885E-2,-5.6481905E-2,1.9753541E-1,-5.163633E-2,-1.02638476E-1,-1.0742272E-1,9.061544E-2,4.9758583E-2,-1.0250315E-1,-9.61678E-3,2.5344056E-1,7.46554E-2,2.2728658E-1,-1.15621306E-1,1.3251602E-2,2.1585822E-1,5.9817288E-2,-4.824157E-2,-1.6066486E-1,-1.5914473E-1,-2.0790769E-2,-1.8314104E-1,1.09795496E-1,-1.7750078E-1,-1.4369437E-1,-1.752496E-1,7.6856926E-2,-1.5460347E-1,1.4228769E-1,-1.5746959E-2,1.5350564E-1,8.364414E-3,-1.5980676E-1],"split_indices":[7,8,6,5,1,1,1,0,3,0,0,0,0,7,0,6,4,5,2,1,4,0,6,0,7,1,1,6,4,4,7,6,0,6,4,1,2,2,0,0,0,0,7,0,3,4,6,1,1,5,4,2,2,0,4,3,4,0,6,5,0,4,6,0,0,0,0,0,0,0,0,0,0,0,0,0,0,0,0,0,0,0,0,0,0,0,0,0,0,0,0,0,0,0,0,0,0,0,0,0,0,0,0,0,0,0,0,0,0,0,0,0,0,0,0,0,0,0,0,0,0,0,0,0,0],"split_type":[0,0,0,0,0,0,0,0,0,0,0,0,0,0,0,0,0,0,0,0,0,0,0,0,0,0,0,0,0,0,0,0,0,0,0,0,0,0,0,0,0,0,0,0,0,0,0,0,0,0,0,0,0,0,0,0,0,0,0,0,0,0,0,0,0,0,0,0,0,0,0,0,0,0,0,0,0,0,0,0,0,0,0,0,0,0,0,0,0,0,0,0,0,0,0,0,0,0,0,0,0,0,0,0,0,0,0,0,0,0,0,0,0,0,0,0,0,0,0,0,0,0,0,0,0],"sum_hessian":[4.1011793E4,2.493029E4,1.6081505E4,1.9622441E4,5.3078477E3,4.288531E3,1.1792975E4,3.387976E3,1.6234466E4,5.080606E3,2.2724161E2,3.8749258E3,4.1360483E2,1.1669882E4,1.23093155E2,2.8311865E3,5.5678973E2,1.4652345E4,1.5821211E3,4.259956E3,8.2064954E2,1.5929388E2,6.794773E1,3.4698975E3,4.0502835E2,8.5685455E1,3.279194E2,1.721963E3,9.947918E3,7.822195E1,4.487121E1,6.575294E2,2.173657E3,3.349496E2,2.2184015E2,1.06683125E4,3.984032E3,8.03859E2,7.7826215E2,4.164668E3,9.528842E1,2.8829756E1,7.9181976E2,2.6308177E0,1.5666306E2,4.3090702E1,2.4857027E1,5.552999E2,2.9145974E3,2.2752083E2,1.775075E2,6.018993E1,2.5495522E1,2.025989E2,1.2532049E2,5.7402374E2,1.1479392E3,5.5984854E3,4.349433E3,2.7613077E1,5.060887E1,6.089332E0,3.8781876E1,5.093473E2,1.4818213E2,4.744433E2,1.6992136E3,4.3391E0,3.3061047E2,2.7049889E1,1.9479027E2,1.0472308E4,1.9600478E2,2.9167344E3,1.0672976E3,3.3356442E2,4.7029456E2,6.253811E2,1.5288101E2,2.2606099E3,1.9040581E3,6.164564E1,3.364278E1,9.711281E0,1.9118475E1,6.243529E2,1.6746689E2,1.20850334E2,3.5812725E1,4.0753292E1,2.3374085E0,1.3978256E1,1.0878771E1,5.3154785E2,2.3752056E1,4.507087E2,2.463889E3,1.7998312E2,4.75377E1,1.392098E2,3.8297714E1,2.3660202E0,5.782391E1,1.3366209E1,1.21293125E1,2.930761E1,1.7329129E2,8.035026E1,4.4970226E1,4.4782156E2,1.26202156E2,1.1011677E3,4.6771496E1,5.590398E3,8.087088E0,1.4250692E3,2.924364E3,1.5617531E1,1.1995545E1,4.14656E0,4.646231E1,2.420096E0,3.6692362E0,7.207414E0,3.1574463E1],"tree_param":{"num_deleted":"0","num_feature":"9","num_nodes":"125","size_leaf_vector":"1"}},{"base_weights":[-3.0606E-3,-2.7721113E-1,4.6118924E-1,-3.1717253E-1,6.349525E-1,5.655917E-1,3.3264682E-1,6.135769E-1,-3.29906E-1,6.44965E-1,4.033991E-1,2.1298613E-2,5.9889746E-1,5.239622E-1,2.4522081E-1,3.5245664E-2,6.1810523E-1,-6.19929E-1,-3.0123696E-1,5.788438E-1,6.737425E-1,7.22623E-2,5.9618986E-1,-1.8157901E-1,6.3218854E-2,6.00057E-1,-1.8440118E-1,1.24964274E-1,5.755381E-1,2.2821432E-1,5.6073177E-1,4.4222686E-2,6.206085E-1,-1.8641315E-1,1.9843681E-1,-3.5535508E-1,-2.094945E-1,6.186713E-1,4.5955804E-1,6.1767006E-1,7.145085E-1,-3.3907002E-1,2.395228E-1,3.7061733E-1,2.2830145E-1,3.386692E-1,-5.815596E-2,6.030988E-1,1.34556E-1,2.7093971E-2,4.4127724E-1,4.1900262E-1,6.0260767E-1,2.325379E-1,-3.4666803E-1,-1.4398919E-1,6.2479544E-1,1.7348696E-1,2.0060782E-1,1.9827123E-1,-1.2270283E-1,-1.19347654E-1,-7.954647E-2,1.646457E-1,-8.303827E-2,9.896785E-2,1.9245392E-1,1.6989902E-1,3.9156217E-2,1.9465163E-1,1.3402943E-1,1.4945798E-1,2.1661033E-1,1.4132999E-2,-1.860713E-1,-4.2818088E-2,1.8776593E-1,1.4482029E-1,-8.350599E-2,1.23430036E-1,-1.8489994E-1,-1.2781468E-1,1.1353414E-2,1.9360955E-1,1.7387488E-1,-1.0559246E-1,1.3898182E-1,-1.485508E-1,2.888057E-2,1.7077212E-1,-2.1984508E-2,5.7942074E-2,1.8048218E-1,1.9003181E-1,1.342391E-1,-6.142458E-2,7.141737E-2,3.9521717E-2,-1.7013961E-1,2.4941505E-1,-1.2826239E-1,6.474097E-2,2.0040928E-1],"categories":[],"categories_nodes":[],"categories_segments":[],"categories_sizes":[],"default_left":[0,0,0,0,0,0,0,0,0,0,0,0,0,0,0,0,0,0,0,0,0,0,0,0,0,0,0,0,0,0,0,0,0,0,0,0,0,0,0,0,0,0,0,0,0,0,0,0,0,0,0,0,0,0,0,0,0,0,0,0,0,0,0,0,0,0,0,0,0,0,0,0,0,0,0,0,0,0,0,0,0,0,0,0,0,0,0,0,0,0,0,0,0,0,0,0,0,0,0,0,0,0,0],"id":7,"left_children":[1,3,5,7,9,11,13,15,17,19,21,23,25,27,29,-1,31,33,35,37,39,41,43,-1,45,47,-1,49,51,53,55,-1,57,-1,59,61,63,65,67,69,71,73,75,77,-1,79,81,83,85,87,89,91,93,95,97,99,101,-1,-1,-1,-1,-1,-1,-1,-1,-1,-1,-1,-1,-1,-1,-1,-1,-1,-1,-1,-1,-1,-1,-1,-1,-1,-1,-1,-1,-1,-1,-1,-1,-1,-1,-1,-1,-1,-1,-1,-1,-1,-1,-1,-1,-1,-1],"loss_changes":[5.2233223E3,9.40746E2,2.0429639E2,2.9318042E2,2.2514038E0,1.5238403E2,1.1413458E2,6.776581E-1,2.0258691E2,1.5826416E0,2.9938374E0,1.2797708E1,1.1516357E1,4.4003113E1,2.5041046E1,0E0,2.982025E-1,2.722168E0,1.10125E2,1.2429886E0,1.1958923E0,1.3638207E0,8.3061695E-1,0E0,1.5272609E1,1.1125732E1,0E0,7.6172857E0,7.78302E0,1.1147446E1,1.0889931E1,0E0,2.820816E-1,0E0,1.5714132E0,5.3369263E1,4.2055045E2,1.3590698E0,2.8897343E0,1.3555756E0,3.0508423E-1,6.5933985E-1,2.133237E0,1.1955464E0,0E0,9.960655E0,1.1230873E1,7.4414062E0,8.58667E0,6.8856134E0,3.8717585E0,1.1550251E1,7.439209E0,1.0717468E1,3.6225286E0,6.0934205E0,3.7367325E0,0E0,0E0,0E0,0E0,0E0,0E0,0E0,0E0,0E0,0E0,0E0,0E0,0E0,0E0,0E0,0E0,0E0,0E0,0E0,0E0,0E0,0E0,0E0,0E0,0E0,0E0,0E0,0E0,0E0,0E0,0E0,0E0,0E0,0E0,0E0,0E0,0E0,0E0,0E0,0E0,0E0,0E0,0E0,0E0,0E0,0E0],"parents":[2147483647,0,0,1,1,2,2,3,3,4,4,5,5,6,6,7,7,8,8,9,9,10,10,11,11,12,12,13,13,14,14,16,16,17,17,18,18,19,19,20,20,21,21,22,22,24,24,25,25,27,27,28,28,29,29,30,30,32,32,34,34,35,35,36,36,37,37,38,38,39,39,40,40,41,41,42,42,43,43,45,45,46,46,47,47,48,48,49,49,50,50,51,51,52,52,53,53,54,54,55,55,56,56],"right_children":[2,4,6,8,10,12,14,16,18,20,22,24,26,28,30,-1,32,34,36,38,40,42,44,-1,46,48,-1,50,52,54,56,-1,58,-1,60,62,64,66,68,70,72,74,76,78,-1,80,82,84,86,88,90,92,94,96,98,100,102,-1,-1,-1,-1,-1,-1,-1,-1,-1,-1,-1,-1,-1,-1,-1,-1,-1,-1,-1,-1,-1,-1,-1,-1,-1,-1,-1,-1,-1,-1,-1,-1,-1,-1,-1,-1,-1,-1,-1,-1,-1,-1,-1,-1,-1,-1],"split_conditions":[1.48617E3,2.1E1,1.491E1,1E0,2.9155002E2,1.5E1,2.55184E3,1.4285834E1,3E0,2.3E1,5.06909E3,3E0,7.2982524E3,1.5E1,1E0,3.5245664E-2,1.4E1,2.5E1,1.6E1,3.2E1,2.7E1,5.96E0,3.6E1,-1.8157901E-1,1E1,4.680146E2,-1.8440118E-1,1.944E1,1.3E1,5.853831E2,9E0,4.4222686E-2,3.9E1,-1.8641315E-1,1E1,6E0,6E0,2.2E1,9.6604034E1,2.6E1,6.5645667E2,2.1E1,2.1E1,3E1,2.2830145E-1,1.1395943E4,1.56152E3,5.96E0,5.8097227E3,1.2421562E3,1.6063177E2,2.1E1,2.44065E3,2.58511E3,1.786E1,1.1E1,9E0,1.7348696E-1,2.0060782E-1,1.9827123E-1,-1.2270283E-1,-1.19347654E-1,-7.954647E-2,1.646457E-1,-8.303827E-2,9.896785E-2,1.9245392E-1,1.6989902E-1,3.9156217E-2,1.9465163E-1,1.3402943E-1,1.4945798E-1,2.1661033E-1,1.4132999E-2,-1.860713E-1,-4.2818088E-2,1.8776593E-1,1.4482029E-1,-8.350599E-2,1.23430036E-1,-1.8489994E-1,-1.2781468E-1,1.1353414E-2,1.9360955E-1,1.7387488E-1,-1.0559246E-1,1.3898182E-1,-1.485508E-1,2.888057E-2,1.7077212E-1,-2.1984508E-2,5.7942074E-2,1.8048218E-1,1.9003181E-1,1.342391E-1,-6.142458E-2,7.141737E-2,3.9521717E-2,-1.7013961E-1,2.4941505E-1,-1.2826239E-1,6.474097E-2,2.0040928E-1],"split_indices":[6,7,4,8,1,7,6,1,5,3,0,5,0,7,8,0,2,3,3,7,7,4,3,0,2,1,0,4,3,1,7,0,3,0,7,5,2,7,1,7,0,2,2,3,0,0,6,4,0,0,1,7,6,6,4,3,3,0,0,0,0,0,0,0,0,0,0,0,0,0,0,0,0,0,0,0,0,0,0,0,0,0,0,0,0,0,0,0,0,0,0,0,0,0,0,0,0,0,0,0,0,0,0],"split_type":[0,0,0,0,0,0,0,0,0,0,0,0,0,0,0,0,0,0,0,0,0,0,0,0,0,0,0,0,0,0,0,0,0,0,0,0,0,0,0,0,0,0,0,0,0,0,0,0,0,0,0,0,0,0,0,0,0,0,0,0,0,0,0,0,0,0,0,0,0,0,0,0,0,0,0,0,0,0,0,0,0,0,0,0,0,0,0,0,0,0,0,0,0,0,0,0,0,0,0,0,0,0,0],"sum_hessian":[4.1037863E4,2.5801732E4,1.5236131E4,2.471944E4,1.0822938E3,8.405646E3,6.830485E3,3.3298206E2,2.4386457E4,1.035723E3,4.657071E1,4.8478482E2,7.9208613E3,2.1407854E3,4.6896997E3,3.255705E0,3.2972635E2,2.1919116E3,2.2194547E4,3.2047998E2,7.152431E2,1.7642622E1,2.892809E1,2.9557938E1,4.5522687E2,7.913805E3,7.0560045E0,2.4544128E2,1.8953441E3,4.451482E3,2.3821773E2,2.061099E0,3.2766525E2,2.18828E3,3.631492E0,1.3957978E4,8.236569E3,2.3712227E2,8.335772E1,3.0789468E2,4.073484E2,4.803212E0,1.2839409E1,1.3584487E1,1.5343602E1,1.3869026E2,3.1653662E2,7.862135E3,5.167033E1,1.8827335E2,5.716795E1,2.8186734E2,1.6134768E3,4.418844E3,3.2637653E1,1.9746979E1,2.1847075E2,1.8120988E2,1.4645538E2,2.0118246E0,1.6196673E0,9.487439E3,4.4705376E3,6.708194E2,7.5657495E3,1.8512953E1,2.1860931E2,6.2390842E1,2.0966877E1,2.5803873E2,4.985596E1,1.5955068E1,3.913933E2,2.3744228E0,2.4287894E0,6.771046E0,6.0683627E0,1.1801756E1,1.7827313E0,1.294001E2,9.290163E0,6.4794334E1,2.517423E2,2.8011113E3,5.0610234E3,2.0805513E1,3.0864819E1,2.1300188E1,1.6697314E2,4.5697414E1,1.1470536E1,1.2692831E2,1.5493904E2,1.3434171E3,2.7005963E2,5.4635242E1,4.364209E3,1.042274E1,2.2214912E1,4.012524E0,1.5734455E1,2.1459812E1,1.9701093E2],"tree_param":{"num_deleted":"0","num_feature":"9","num_nodes":"103","size_leaf_vector":"1"}},{"base_weights":[8.701304E-3,-1.8938874E-1,2.9184604E-1,-2.543467E-1,7.6436155E-2,4.2100903E-1,-1.5185782E-1,-3.9527962E-1,-2.3516071E-1,-2.7583987E-1,1.156668E-1,4.4289696E-1,-2.891813E-1,2.152165E-1,-2.3241317E-1,-4.171894E-1,-2.8893894E-1,-1.9461694E-1,-2.998706E-1,-1.138885E-1,-3.2250762E-1,1.6680802E-1,6.6934414E-2,4.6839204E-1,1.6407093E-1,-3.0336204E-1,4.7585002E-1,3.4951292E-2,2.827145E-1,-1.1667159E-1,-3.054374E-1,-3.7083477E-1,-4.4150394E-1,-2.7418944E-1,-5.5101424E-1,-2.2873195E-1,-1.1202584E-1,-3.0290097E-1,8.365119E-2,-3.186997E-1,1.9933598E-2,-3.9306736E-1,-2.6066458E-1,1.1699229E-1,3.0767787E-1,-2.8560627E-2,9.9337466E-2,4.7352603E-1,-4.289475E-1,-3.105636E-1,2.5075594E-1,-3.5338682E-1,-2.2389458E-1,2.5945517E-1,5.8289015E-1,-1.3850334E-1,3.6803335E-1,5.5259734E-1,2.149499E-1,-5.600608E-2,-2.9337466E-1,-3.0843714E-1,1.2086571E-1,-8.008212E-2,-1.190062E-1,-9.88206E-2,-1.3513783E-1,-9.7689874E-2,-6.085371E-2,-1.7248029E-1,-6.892396E-2,-6.588023E-2,-1.2499044E-1,-2.4148323E-2,-1.0571486E-1,-1.05509974E-1,-8.577832E-2,-1.9636618E-2,1.8802038E-1,-1.3625792E-2,-1.2374928E-1,1.299599E-1,-1.8715832E-2,-8.9544535E-2,-1.5835623E-1,-8.0770105E-2,1.3012423E-1,1.0282442E-1,2.6487293E-2,1.1811207E-1,-5.09037E-3,5.7688598E-2,-4.1027103E-2,-1.4095719E-3,4.569323E-2,1.4948308E-1,1.0918907E-1,-1.9176148E-1,3.7223697E-2,-1.0233206E-1,2.7681285E-1,1.1028357E-1,-4.96195E-2,-5.940213E-2,-1.16054475E-1,-1.6416255E-1,-5.451351E-2,2.3519276E-3,1.2146125E-1,4.5172345E-2,2.0716198E-1,-6.673604E-2,4.259528E-2,-1.9884618E-1,1.5431826E-1,2.147105E-1,1.0746446E-1,3.801639E-2,1.2276552E-1,-2.1396797E-2,2.0472665E-1,-9.05203E-2,1.2397079E-1,5.4512816E-3,-9.352662E-2,2.4017711E-1,-5.164899E-2],"categories":[],"categories_nodes":[],"categories_segments":[],"categories_sizes":[],"default_left":[0,0,0,0,0,0,0,0,0,0,0,0,0,0,0,0,0,0,0,0,0,0,0,0,0,0,0,0,0,0,0,0,0,0,0,0,0,0,0,0,0,0,0,0,0,0,0,0,0,0,0,0,0,0,0,0,0,0,0,0,0,0,0,0,0,0,0,0,0,0,0,0,0,0,0,0,0,0,0,0,0,0,0,0,0,0,0,0,0,0,0,0,0,0,0,0,0,0,0,0,0,0,0,0,0,0,0,0,0,0,0,0,0,0,0,0,0,0,0,0,0,0,0,0,0,0,0],"id":8,"left_children":[1,3,5,7,9,11,13,15,17,19,21,23,25,27,29,31,33,35,37,39,41,43,45,47,49,51,53,55,57,59,61,63,65,67,69,71,73,75,77,79,81,83,85,87,89,91,93,95,97,99,101,103,105,107,109,111,113,115,117,119,121,123,125,-1,-1,-1,-1,-1,-1,-1,-1,-1,-1,-1,-1,-1,-1,-1,-1,-1,-1,-1,-1,-1,-1,-1,-1,-1,-1,-1,-1,-1,-1,-1,-1,-1,-1,-1,-1,-1,-1,-1,-1,-1,-1,-1,-1,-1,-1,-1,-1,-1,-1,-1,-1,-1,-1,-1,-1,-1,-1,-1,-1,-1,-1,-1,-1],"loss_changes":[2.3476245E3,4.2526282E2,9.874663E2,5.3420654E1,6.687807E1,2.0756738E2,1.1493888E2,5.4011536E0,4.564978E1,3.628662E0,1.0837372E1,9.195337E1,4.4794083E0,8.504044E0,2.689746E1,2.048584E0,1.4265137E0,3.0161804E1,7.822754E0,3.0221925E0,1.5380058E0,1.4864357E1,6.9051514E0,5.484619E1,4.4765274E1,1.4829102E0,2.6226997E-2,1.1130224E1,9.189304E0,1.3215687E1,2.5351257E0,1.7247925E0,1.1388855E0,1.359333E0,2.7406693E-2,1.2915985E1,2.3722073E1,5.413025E0,4.363554E0,1.0973921E0,2.3230834E0,2.0559902E0,1.3265972E0,1.0143917E1,1.5481827E1,1.3549143E1,9.180735E0,3.180127E1,7.9861803E0,6.6497307E0,4.474949E1,1.168129E0,2.008009E0,1.5553787E-1,9.724176E-2,3.017955E0,1.02898445E1,2.9619427E0,6.9489727E0,1.0455488E1,1.9867954E0,2.1080322E0,2.999409E0,0E0,0E0,0E0,0E0,0E0,0E0,0E0,0E0,0E0,0E0,0E0,0E0,0E0,0E0,0E0,0E0,0E0,0E0,0E0,0E0,0E0,0E0,0E0,0E0,0E0,0E0,0E0,0E0,0E0,0E0,0E0,0E0,0E0,0E0,0E0,0E0,0E0,0E0,0E0,0E0,0E0,0E0,0E0,0E0,0E0,0E0,0E0,0E0,0E0,0E0,0E0,0E0,0E0,0E0,0E0,0E0,0E0,0E0,0E0,0E0,0E0,0E0,0E0,0E0],"parents":[2147483647,0,0,1,1,2,2,3,3,4,4,5,5,6,6,7,7,8,8,9,9,10,10,11,11,12,12,13,13,14,14,15,15,16,16,17,17,18,18,19,19,20,20,21,21,22,22,23,23,24,24,25,25,26,26,27,27,28,28,29,29,30,30,31,31,32,32,33,33,34,34,35,35,36,36,37,37,38,38,39,39,40,40,41,41,42,42,43,43,44,44,45,45,46,46,47,47,48,48,49,49,50,50,51,51,52,52,53,53,54,54,55,55,56,56,57,57,58,58,59,59,60,60,61,61,62,62],"right_children":[2,4,6,8,10,12,14,16,18,20,22,24,26,28,30,32,34,36,38,40,42,44,46,48,50,52,54,56,58,60,62,64,66,68,70,72,74,76,78,80,82,84,86,88,90,92,94,96,98,100,102,104,106,108,110,112,114,116,118,120,122,124,126,-1,-1,-1,-1,-1,-1,-1,-1,-1,-1,-1,-1,-1,-1,-1,-1,-1,-1,-1,-1,-1,-1,-1,-1,-1,-1,-1,-1,-1,-1,-1,-1,-1,-1,-1,-1,-1,-1,-1,-1,-1,-1,-1,-1,-1,-1,-1,-1,-1,-1,-1,-1,-1,-1,-1,-1,-1,-1,-1,-1,-1,-1,-1,-1],"split_conditions":[2E0,1.491E1,1.48617E3,3E0,2.46937E3,2.1E1,1.5E1,1.0090525E4,1.6E1,1.2E1,3.8E1,2.5964987E2,3.2515363E2,1.1E1,2.1E1,2.80587E3,1.42736E3,6E0,5.1975415E2,4E0,2.1E1,3E1,2E1,8E0,4.45313E3,9.6604034E1,1.2E1,1.2E1,1.3E1,8E0,4.680146E2,3E0,1.61E0,8.0606E2,1.5E1,1.5E1,1.4E1,1E1,4.2E1,1.571E1,3E0,1.9E1,3.1188474E2,1.7E1,3.4E1,1.3908992E3,7.205824E1,1.24763E3,2.6356768E3,1.0910109E3,5.853831E2,2.13106E1,1.27305E3,5.5E1,4.4E1,1.4128944E2,1.1915153E1,1.7084045E3,3.602715E3,3.5361612E2,1.1E1,9.575854E0,1.3E1,-8.008212E-2,-1.190062E-1,-9.88206E-2,-1.3513783E-1,-9.7689874E-2,-6.085371E-2,-1.7248029E-1,-6.892396E-2,-6.588023E-2,-1.2499044E-1,-2.4148323E-2,-1.0571486E-1,-1.05509974E-1,-8.577832E-2,-1.9636618E-2,1.8802038E-1,-1.3625792E-2,-1.2374928E-1,1.299599E-1,-1.8715832E-2,-8.9544535E-2,-1.5835623E-1,-8.0770105E-2,1.3012423E-1,1.0282442E-1,2.6487293E-2,1.1811207E-1,-5.09037E-3,5.7688598E-2,-4.1027103E-2,-1.4095719E-3,4.569323E-2,1.4948308E-1,1.0918907E-1,-1.9176148E-1,3.7223697E-2,-1.0233206E-1,2.7681285E-1,1.1028357E-1,-4.96195E-2,-5.940213E-2,-1.16054475E-1,-1.6416255E-1,-5.451351E-2,2.3519276E-3,1.2146125E-1,4.5172345E-2,2.0716198E-1,-6.673604E-2,4.259528E-2,-1.9884618E-1,1.5431826E-1,2.147105E-1,1.0746446E-1,3.801639E-2,1.2276552E-1,-2.1396797E-2,2.0472665E-1,-9.05203E-2,1.2397079E-1,5.4512816E-3,-9.352662E-2,2.4017711E-1,-5.164899E-2],"split_indices":[8,4,6,5,6,7,7,0,3,3,3,1,1,2,7,0,6,5,1,5,7,7,7,5,0,1,2,7,2,5,1,2,4,6,3,2,2,7,3,4,2,2,1,7,7,0,1,6,0,1,1,1,6,3,3,1,1,0,0,1,5,1,2,0,0,0,0,0,0,0,0,0,0,0,0,0,0,0,0,0,0,0,0,0,0,0,0,0,0,0,0,0,0,0,0,0,0,0,0,0,0,0,0,0,0,0,0,0,0,0,0,0,0,0,0,0,0,0,0,0,0,0,0,0,0,0,0],"split_type":[0,0,0,0,0,0,0,0,0,0,0,0,0,0,0,0,0,0,0,0,0,0,0,0,0,0,0,0,0,0,0,0,0,0,0,0,0,0,0,0,0,0,0,0,0,0,0,0,0,0,0,0,0,0,0,0,0,0,0,0,0,0,0,0,0,0,0,0,0,0,0,0,0,0,0,0,0,0,0,0,0,0,0,0,0,0,0,0,0,0,0,0,0,0,0,0,0,0,0,0,0,0,0,0,0,0,0,0,0,0,0,0,0,0,0,0,0,0,0,0,0,0,0,0,0,0,0],"sum_hessian":[4.1853996E4,2.4625885E4,1.7228111E4,1.9789975E4,4.8359097E3,1.3343768E4,3.8843438E3,2.3689548E3,1.742102E4,4.839745E2,4.3519355E3,1.2945176E4,3.985914E2,6.987249E2,3.1856187E3,1.9618291E3,4.0712582E2,1.0712899E4,6.70812E3,1.0903394E2,3.7494055E2,2.1223035E3,2.2296318E3,1.1860046E4,1.0851299E3,3.9193E2,6.6614184E0,1.9076671E2,5.0795822E2,1.2333643E3,1.9522544E3,6.8058167E2,1.2812474E3,3.87371E2,1.9754826E1,7.5801016E3,3.132798E3,6.6557407E3,5.2379524E1,4.25424E1,6.649154E1,1.7262659E2,2.0231398E2,1.5692137E3,5.530898E2,5.6490857E2,1.6647233E3,1.1793046E4,6.6999725E1,1.671786E2,9.1795123E2,2.3840627E2,1.5352373E2,3.337717E0,3.3237016E0,1.25826126E2,6.494059E1,1.005094E2,4.0744882E2,9.1912744E2,3.1423685E2,1.9388876E3,1.3366857E1,1.3786505E2,5.427166E2,9.7578064E1,1.1836693E3,2.2300546E2,1.6436554E2,1.7651035E1,2.1037893E0,7.230884E3,3.4921783E2,2.7706614E3,3.6213672E2,1.7125016E3,4.9432393E3,4.1786327E1,1.0593197E1,1.1249928E1,3.1292473E1,1.0336626E1,5.6154915E1,1.0332999E2,6.92966E1,2.0045265E2,1.8613195E0,1.757642E2,1.3934496E3,4.370592E2,1.1603059E2,1.8549316E2,3.7941537E2,5.6196747E2,1.1027557E3,9.616961E3,2.1760857E3,4.843079E1,1.8568933E1,1.6384424E2,3.3343592E0,7.1679285E2,2.0115843E2,4.3469757E1,1.9493651E2,1.6336803E1,1.3718692E2,1.6084679E0,1.7292491E0,1.1408505E0,2.1828508E0,9.700066E1,2.8825459E1,7.635224E0,5.7305367E1,5.3193436E1,4.7315964E1,2.813319E2,1.2611689E2,9.013352E2,1.77922E1,3.11129E2,3.1078677E0,1.9455381E1,1.9194323E3,3.5048087E0,9.862048E0],"tree_param":{"num_deleted":"0","num_feature":"9","num_nodes":"127","size_leaf_vector":"1"}},{"base_weights":[-9.961559E-3,2.1928395E-1,-4.02915E-1,3.2294333E-1,-1.8636799E-1,-1.631708E-1,-4.9709344E-1,5.625946E-1,2.7683246E-1,-2.1334995E-1,3.8150316E-1,-2.1133374E-1,2.570406E-1,-3.664449E-1,-5.2054816E-1,5.7685214E-1,4.914727E-1,3.031235E-1,3.0756803E-2,-2.3982769E-1,-8.044197E-2,4.9538684E-1,1.14903785E-1,-2.3052016E-1,-5.3049512E-2,5.209362E-1,1.4459163E-1,-1.9077483E-1,-4.6212608E-1,-5.296313E-1,-1.11415766E-1,5.36908E-1,5.8878165E-1,5.132027E-1,3.894247E-1,3.4323657E-1,1.9819675E-1,-2.5928965E-1,3.2213944E-1,4.5525584E-1,-2.4603358E-1,-5.6102708E-2,-4.6069315E-1,5.1143396E-1,-1.7921187E-1,3.0707845E-1,-2.3733792E-1,-1.8465056E-1,-3.1744194E-1,1.4596567E-1,-1.3712178E-1,5.9158546E-1,-1.04611345E-1,-3.3381736E-1,2.3435551E-1,-1.12145096E-1,-4.9223685E-1,-4.8185375E-1,-5.7692364E-2,-5.738931E-1,-4.7497088E-1,2.345855E-1,-4.5445845E-1,1.6948354E-1,1.3186045E-1,1.6412297E-1,1.800808E-1,1.7083374E-1,1.362555E-1,7.5941294E-2,1.8394022E-1,-5.434514E-2,1.03937455E-1,4.8858333E-2,1.2598875E-1,-1.8323117E-1,-3.4944244E-2,1.1077229E-1,-1.3569275E-1,-1.8729657E-1,2.640985E-1,-5.867563E-2,-9.2432424E-2,-3.6075074E-2,2.5959007E-2,5.5433217E-2,-1.6995396E-1,-1.2817453E-1,1.5803413E-1,1.0915991E-1,-1.6057016E-1,-1.9296953E-1,5.5621855E-2,-5.9661858E-2,1.7315412E-1,-1.5162559E-1,-7.793768E-2,8.0751374E-2,-1.810235E-1,2.8152538E-2,-7.651307E-2,1.6588344E-1,2.7720502E-1,-1.7788434E-1,1.3085943E-1,7.797503E-2,-1.9308008E-1,3.259714E-2,1.6740888E-1,-5.603272E-2,1.7452097E-2,-1.8653475E-1,-6.472257E-2,-1.4715476E-1,1.2536858E-1,2.018309E-1,-7.620645E-2,-1.730889E-1,-1.583019E-2,-1.6592096E-1,-1.3147898E-1,-1.1304218E-1,1.1779964E-1,2.252228E-2,-1.5678918E-1],"categories":[],"categories_nodes":[],"categories_segments":[],"categories_sizes":[],"default_left":[0,0,0,0,0,0,0,0,0,0,0,0,0,0,0,0,0,0,0,0,0,0,0,0,0,0,0,0,0,0,0,0,0,0,0,0,0,0,0,0,0,0,0,0,0,0,0,0,0,0,0,0,0,0,0,0,0,0,0,0,0,0,0,0,0,0,0,0,0,0,0,0,0,0,0,0,0,0,0,0,0,0,0,0,0,0,0,0,0,0,0,0,0,0,0,0,0,0,0,0,0,0,0,0,0,0,0,0,0,0,0,0,0,0,0,0,0,0,0,0,0,0,0,0,0],"id":9,"left_children":[1,3,5,7,9,11,13,15,17,19,21,23,25,27,29,31,33,35,37,39,41,43,45,47,49,51,53,55,57,59,61,63,65,67,69,71,73,75,77,79,81,83,85,87,-1,89,91,93,95,97,99,101,103,105,107,109,111,113,115,117,119,121,123,-1,-1,-1,-1,-1,-1,-1,-1,-1,-1,-1,-1,-1,-1,-1,-1,-1,-1,-1,-1,-1,-1,-1,-1,-1,-1,-1,-1,-1,-1,-1,-1,-1,-1,-1,-1,-1,-1,-1,-1,-1,-1,-1,-1,-1,-1,-1,-1,-1,-1,-1,-1,-1,-1,-1,-1,-1,-1,-1,-1,-1,-1],"loss_changes":[3.4474534E3,1.0163812E3,3.182854E2,2.1257532E2,7.5464386E1,8.056929E1,3.0829346E1,2.8653564E0,1.0445105E2,1.6511063E1,6.729355E0,1.0828781E1,1.2077635E1,2.5865768E1,3.182544E1,9.138794E-1,9.650421E-1,6.133081E1,1.3190018E2,1.7006104E1,7.2101064E0,3.0465813E0,4.6897254E0,1.2634277E1,6.4989443E0,5.4528503E0,1.2469915E1,1.2891214E1,7.9422913E0,2.0033936E1,2.2374674E1,1.4031525E0,6.187744E-1,1.1685181E0,2.7829657E0,1.788855E1,3.156511E1,3.919069E1,2.8564896E1,1.6615025E1,1.2097855E1,6.7439585E0,3.307786E0,2.452011E0,0E0,2.326405E0,4.3471203E0,2.2719154E1,1.1770538E1,1.0824764E1,7.452228E0,8.989067E-1,3.7522268E0,8.628086E0,9.848477E0,5.5335503E0,3.9023342E0,7.6272736E0,6.9967704E0,7.3811035E0,1.0540588E1,9.238943E0,3.4523716E0,0E0,0E0,0E0,0E0,0E0,0E0,0E0,0E0,0E0,0E0,0E0,0E0,0E0,0E0,0E0,0E0,0E0,0E0,0E0,0E0,0E0,0E0,0E0,0E0,0E0,0E0,0E0,0E0,0E0,0E0,0E0,0E0,0E0,0E0,0E0,0E0,0E0,0E0,0E0,0E0,0E0,0E0,0E0,0E0,0E0,0E0,0E0,0E0,0E0,0E0,0E0,0E0,0E0,0E0,0E0,0E0,0E0,0E0,0E0,0E0,0E0,0E0],"parents":[2147483647,0,0,1,1,2,2,3,3,4,4,5,5,6,6,7,7,8,8,9,9,10,10,11,11,12,12,13,13,14,14,15,15,16,16,17,17,18,18,19,19,20,20,21,21,22,22,23,23,24,24,25,25,26,26,27,27,28,28,29,29,30,30,31,31,32,32,33,33,34,34,35,35,36,36,37,37,38,38,39,39,40,40,41,41,42,42,43,43,45,45,46,46,47,47,48,48,49,49,50,50,51,51,52,52,53,53,54,54,55,55,56,56,57,57,58,58,59,59,60,60,61,61,62,62],"right_children":[2,4,6,8,10,12,14,16,18,20,22,24,26,28,30,32,34,36,38,40,42,44,46,48,50,52,54,56,58,60,62,64,66,68,70,72,74,76,78,80,82,84,86,88,-1,90,92,94,96,98,100,102,104,106,108,110,112,114,116,118,120,122,124,-1,-1,-1,-1,-1,-1,-1,-1,-1,-1,-1,-1,-1,-1,-1,-1,-1,-1,-1,-1,-1,-1,-1,-1,-1,-1,-1,-1,-1,-1,-1,-1,-1,-1,-1,-1,-1,-1,-1,-1,-1,-1,-1,-1,-1,-1,-1,-1,-1,-1,-1,-1,-1,-1,-1,-1,-1,-1,-1,-1,-1,-1],"split_conditions":[1.3E1,2E0,1.26796E3,3E0,4.1333163E2,2.8263962E2,1.7E1,1.0090525E4,2.1E1,8.0033516E3,8.30946E3,8.754566E3,5.8602915E3,1.49407E3,4.3473138E2,3.1542E2,1.4E1,6E0,1.2E1,5.8805206E2,3E1,3.3E1,6.0535E2,3.8691934E3,7.1412674E1,8.961E2,2.2804E2,2.8E1,2.687E1,1.521E1,5.94732E3,2.4816E2,2.144964E3,1.1874227E4,1.2080517E4,5.7E-1,1.3E1,6E0,9.366753E3,2.8410824E1,2.824335E3,1.7E1,2.7775E2,3.476215E3,-1.7921187E-1,1.989E1,1.9E1,1.837595E2,1.1E1,1.257E1,4.144E2,5.633645E3,3.5361612E2,8.53595E3,5.853831E2,9.910135E1,1.4405E3,4.92157E3,2E1,7.6806123E3,2.60483E3,9.63E0,1.32396E3,1.6948354E-1,1.3186045E-1,1.6412297E-1,1.800808E-1,1.7083374E-1,1.362555E-1,7.5941294E-2,1.8394022E-1,-5.434514E-2,1.03937455E-1,4.8858333E-2,1.2598875E-1,-1.8323117E-1,-3.4944244E-2,1.1077229E-1,-1.3569275E-1,-1.8729657E-1,2.640985E-1,-5.867563E-2,-9.2432424E-2,-3.6075074E-2,2.5959007E-2,5.5433217E-2,-1.6995396E-1,-1.2817453E-1,1.5803413E-1,1.0915991E-1,-1.6057016E-1,-1.9296953E-1,5.5621855E-2,-5.9661858E-2,1.7315412E-1,-1.5162559E-1,-7.793768E-2,8.0751374E-2,-1.810235E-1,2.8152538E-2,-7.651307E-2,1.6588344E-1,2.7720502E-1,-1.7788434E-1,1.3085943E-1,7.797503E-2,-1.9308008E-1,3.259714E-2,1.6740888E-1,-5.603272E-2,1.7452097E-2,-1.8653475E-1,-6.472257E-2,-1.4715476E-1,1.2536858E-1,2.018309E-1,-7.620645E-2,-1.730889E-1,-1.583019E-2,-1.6592096E-1,-1.3147898E-1,-1.1304218E-1,1.1779964E-1,2.252228E-2,-1.5678918E-1],"split_indices":[7,8,6,5,1,1,7,0,3,0,0,0,0,6,1,6,3,5,2,0,3,3,6,0,1,6,6,3,4,4,0,6,0,0,0,4,2,2,0,1,0,2,6,0,0,4,2,1,2,4,6,0,1,0,1,1,6,6,3,0,6,4,6,0,0,0,0,0,0,0,0,0,0,0,0,0,0,0,0,0,0,0,0,0,0,0,0,0,0,0,0,0,0,0,0,0,0,0,0,0,0,0,0,0,0,0,0,0,0,0,0,0,0,0,0,0,0,0,0,0,0,0,0,0,0],"split_type":[0,0,0,0,0,0,0,0,0,0,0,0,0,0,0,0,0,0,0,0,0,0,0,0,0,0,0,0,0,0,0,0,0,0,0,0,0,0,0,0,0,0,0,0,0,0,0,0,0,0,0,0,0,0,0,0,0,0,0,0,0,0,0,0,0,0,0,0,0,0,0,0,0,0,0,0,0,0,0,0,0,0,0,0,0,0,0,0,0,0,0,0,0,0,0,0,0,0,0,0,0,0,0,0,0,0,0,0,0,0,0,0,0,0,0,0,0,0,0,0,0,0,0,0,0],"sum_hessian":[3.8267844E4,2.4168562E4,1.409928E4,1.9249732E4,4.9188296E3,3.9772852E3,1.0121995E4,3.1043486E3,1.6145384E4,4.6963125E3,2.2251738E2,3.5687468E3,4.085383E2,1.5431129E3,8.578882E3,2.5800303E3,5.2431836E2,1.4586691E4,1.5586926E3,3.9154727E3,7.808397E2,1.5531364E2,6.720375E1,3.182521E3,3.8622577E2,1.20982796E2,2.875555E2,5.451728E2,9.979401E2,8.392271E3,1.8661029E2,6.039162E2,1.976114E3,4.28949E2,9.536932E1,1.0550868E4,4.0358228E3,7.811925E2,7.775001E2,3.4008636E1,3.881464E3,7.3494464E2,4.589507E1,1.5359015E2,1.7234814E0,4.3564312E1,2.3639435E1,2.0852402E3,1.0972808E3,1.1448399E2,2.7174176E2,1.0875438E2,1.2228415E1,4.5000465E1,2.4255504E2,4.3348087E2,1.1169194E2,9.513435E2,4.6596592E1,4.63198E3,3.7602917E3,9.306192E1,9.354837E1,4.6517447E2,1.3874174E2,4.3726794E2,1.5388461E3,2.1520915E2,2.1373985E2,6.0589085E1,3.478024E1,6.4086845E1,1.0486782E4,3.4826409E3,5.531818E2,2.2475327E2,5.564392E2,7.334173E2,4.408279E1,9.475217E0,2.4533422E1,2.1435466E3,1.7379175E3,5.070578E2,2.2788684E2,6.3592706E0,3.95358E1,2.0389006E0,1.5155125E2,4.1344894E1,2.2194192E0,1.1793985E1,1.18454485E1,2.0477506E3,3.7489605E1,2.5571414E2,8.4156665E2,9.886959E1,1.5614403E1,9.191658E1,1.7982518E2,9.98155E1,8.938877E0,6.37529E0,5.853124E0,1.5484202E1,2.9516262E1,1.7566966E2,6.6885376E1,3.013417E2,1.3213918E2,7.52067E1,3.6485237E1,9.4272253E2,8.620975E0,9.356831E0,3.723976E1,4.6047476E3,2.7232845E1,1.1977983E3,2.5624934E3,1.8834322E1,7.42276E1,1.0658249E1,8.289012E1],"tree_param":{"num_deleted":"0","num_feature":"9","num_nodes":"125","size_leaf_vector":"1"}},{"base_weights":[-4.3747933E-3,-2.331805E-1,3.605455E-1,-2.6679766E-1,5.1280725E-1,4.4864E-1,2.5727004E-1,-5.857996E-1,-2.3927426E-1,5.218396E-1,3.0933157E-1,2.2468753E-2,4.7566468E-1,4.226371E-1,1.924854E-1,-1.7624648E-1,2.0446494E-1,4.9323255E-1,-2.505581E-1,3.7582734E-1,5.3491455E-1,2.5476161E-2,4.8320374E-1,-2.1022798E-2,5.112027E-1,4.2468497E-1,4.993421E-1,1.20014176E-1,4.640107E-1,1.7646194E-1,4.2831752E-1,5.944019E-1,-1.12214126E-1,1.6103147E-2,4.9769372E-1,-2.5362942E-1,1.2309357E0,4.8628777E-1,1.4850207E-1,4.8474768E-1,5.671336E-1,-3.5667613E-1,1.8675382E-1,2.7483422E-1,1.928044E-1,-1.7047781E-1,1.2183093E-2,-3.6765108E-1,9.1005456E-1,4.9038577E-1,3.1828693E-1,5.013048E-1,-4.6742342E-2,-4.7550792E-1,1.7979367E-1,3.6470783E-1,5.085004E-1,1.6714378E-1,3.7317467E-1,1.3005696E-1,5.572589E-1,2.2696096E-1,4.575085E-2,1.3771018E-1,1.6254997E-1,-8.94572E-2,-5.119639E-2,4.5372084E-1,2.8125268E-1,1.609248E-1,7.60104E-2,-3.168367E-2,1.0742669E-1,1.5175954E-1,8.112037E-2,1.5777287E-1,1.8625581E-1,-1.8987773E-1,-5.892522E-3,-3.7462544E-2,1.5035236E-1,1.1358208E-1,-8.5367635E-2,2.0764098E-2,-8.925001E-2,1.8432254E-1,-1.542429E-1,6.387903E-2,3.280758E-1,1.5180966E-1,9.58756E-2,9.8800875E-2,-2.1327262E-1,1.4598446E-1,1.6531058E-1,1.17187396E-1,-1.4734505E-1,5.935402E-2,-1.7001772E-1,1.1740058E-2,1.2437612E-1,5.2737396E-2,1.5483685E-1,1.7915258E-2,1.5525103E-1,5.612208E-2,1.0979387E-2,2.7912334E-2,1.7297216E-1,-2.0106317E-2,1.7997791E-1,1.447826E-1,1.9472688E-1],"categories":[],"categories_nodes":[],"categories_segments":[],"categories_sizes":[],"default_left":[0,0,0,0,0,0,0,0,0,0,0,0,0,0,0,0,0,0,0,0,0,0,0,0,0,0,0,0,0,0,0,0,0,0,0,0,0,0,0,0,0,0,0,0,0,0,0,0,0,0,0,0,0,0,0,0,0,0,0,0,0,0,0,0,0,0,0,0,0,0,0,0,0,0,0,0,0,0,0,0,0,0,0,0,0,0,0,0,0,0,0,0,0,0,0,0,0,0,0,0,0,0,0,0,0,0,0,0,0,0,0,0,0],"id":10,"left_children":[1,3,5,7,9,11,13,15,17,19,21,23,25,27,29,-1,31,33,35,37,39,41,43,45,47,49,51,53,55,57,59,61,-1,-1,63,65,67,69,71,73,75,77,79,81,-1,-1,83,85,87,89,91,93,95,97,99,101,103,105,107,109,111,-1,-1,-1,-1,-1,-1,-1,-1,-1,-1,-1,-1,-1,-1,-1,-1,-1,-1,-1,-1,-1,-1,-1,-1,-1,-1,-1,-1,-1,-1,-1,-1,-1,-1,-1,-1,-1,-1,-1,-1,-1,-1,-1,-1,-1,-1,-1,-1,-1,-1,-1,-1],"loss_changes":[3.2024314E3,5.913164E2,1.3435962E2,1.9791772E2,1.707428E0,9.18418E1,7.28378E1,2.5100708E0,1.7177966E2,1.6549683E0,2.2420015E0,1.0141826E1,8.840576E0,2.3922302E1,1.8411896E1,0E0,1.2511393E0,5.917587E-1,9.337756E1,2.0185556E0,1.1634674E0,1.2010247E0,7.627816E-1,7.97764E0,1.400104E1,1.6517517E1,5.5062256E0,8.333399E0,7.2561646E0,8.337921E0,1.1871059E1,1.0748994E-1,0E0,0E0,2.8386688E-1,7.5421265E1,2.090973E0,5.1321125E-1,1.5646344E0,1.4696884E0,8.6050415E-1,5.281542E-1,1.395138E0,9.2062414E-1,0E0,0E0,7.341673E0,2.1692567E0,3.2350655E0,3.7740784E0,1.06214905E1,3.4555664E0,3.930472E0,1.4271374E0,6.9612985E0,1.4918053E1,4.658844E0,1.138192E1,1.1709946E1,8.840988E0,1.1710205E0,0E0,0E0,0E0,0E0,0E0,0E0,0E0,0E0,0E0,0E0,0E0,0E0,0E0,0E0,0E0,0E0,0E0,0E0,0E0,0E0,0E0,0E0,0E0,0E0,0E0,0E0,0E0,0E0,0E0,0E0,0E0,0E0,0E0,0E0,0E0,0E0,0E0,0E0,0E0,0E0,0E0,0E0,0E0,0E0,0E0,0E0,0E0,0E0,0E0,0E0,0E0,0E0],"parents":[2147483647,0,0,1,1,2,2,3,3,4,4,5,5,6,6,7,7,8,8,9,9,10,10,11,11,12,12,13,13,14,14,16,16,17,17,18,18,19,19,20,20,21,21,22,22,23,23,24,24,25,25,26,26,27,27,28,28,29,29,30,30,31,31,34,34,35,35,36,36,37,37,38,38,39,39,40,40,41,41,42,42,43,43,46,46,47,47,48,48,49,49,50,50,51,51,52,52,53,53,54,54,55,55,56,56,57,57,58,58,59,59,60,60],"right_children":[2,4,6,8,10,12,14,16,18,20,22,24,26,28,30,-1,32,34,36,38,40,42,44,46,48,50,52,54,56,58,60,62,-1,-1,64,66,68,70,72,74,76,78,80,82,-1,-1,84,86,88,90,92,94,96,98,100,102,104,106,108,110,112,-1,-1,-1,-1,-1,-1,-1,-1,-1,-1,-1,-1,-1,-1,-1,-1,-1,-1,-1,-1,-1,-1,-1,-1,-1,-1,-1,-1,-1,-1,-1,-1,-1,-1,-1,-1,-1,-1,-1,-1,-1,-1,-1,-1,-1,-1,-1,-1,-1,-1,-1,-1],"split_conditions":[1.48617E3,2.1E1,1.491E1,3E0,2.9155002E2,1.5E1,2.5188E3,2.5E1,1E0,1.9873262E1,5.06909E3,2.562692E2,2.1E1,1.5E1,1E0,-1.7624648E-1,1E1,1.4285834E1,3.6E1,1.39664E3,2.7E1,5.96E0,3.6E1,3E0,1.3E1,1E0,5.853831E2,1.0898588E3,1.9E1,6.407725E3,1.7E1,1.723342E3,-1.12214126E-1,1.6103147E-2,3.9E1,1.7E1,8E0,1.363875E3,4.2E1,5.4683125E3,2.9E1,4.4E1,2.1E1,3E1,1.928044E-1,-1.7047781E-1,1.4670125E2,2.8263962E2,6E0,1.047E1,6.89981E3,4.45313E3,8E0,5.541337E2,2.05439E3,2.1E1,1.505E1,2.5964987E2,2E1,2.8E1,2.8E1,2.2696096E-1,4.575085E-2,1.3771018E-1,1.6254997E-1,-8.94572E-2,-5.119639E-2,4.5372084E-1,2.8125268E-1,1.609248E-1,7.60104E-2,-3.168367E-2,1.0742669E-1,1.5175954E-1,8.112037E-2,1.5777287E-1,1.8625581E-1,-1.8987773E-1,-5.892522E-3,-3.7462544E-2,1.5035236E-1,1.1358208E-1,-8.5367635E-2,2.0764098E-2,-8.925001E-2,1.8432254E-1,-1.542429E-1,6.387903E-2,3.280758E-1,1.5180966E-1,9.58756E-2,9.8800875E-2,-2.1327262E-1,1.4598446E-1,1.6531058E-1,1.17187396E-1,-1.4734505E-1,5.935402E-2,-1.7001772E-1,1.1740058E-2,1.2437612E-1,5.2737396E-2,1.5483685E-1,1.7915258E-2,1.5525103E-1,5.612208E-2,1.0979387E-2,2.7912334E-2,1.7297216E-1,-2.0106317E-2,1.7997791E-1,1.447826E-1,1.9472688E-1],"split_indices":[6,7,4,5,1,7,6,3,8,1,0,1,7,7,8,0,7,1,3,6,3,4,3,5,3,8,1,0,3,0,7,0,0,0,3,3,5,0,3,0,7,3,2,3,0,0,1,1,7,4,0,0,5,0,6,7,4,1,2,3,7,0,0,0,0,0,0,0,0,0,0,0,0,0,0,0,0,0,0,0,0,0,0,0,0,0,0,0,0,0,0,0,0,0,0,0,0,0,0,0,0,0,0,0,0,0,0,0,0,0,0,0,0],"split_type":[0,0,0,0,0,0,0,0,0,0,0,0,0,0,0,0,0,0,0,0,0,0,0,0,0,0,0,0,0,0,0,0,0,0,0,0,0,0,0,0,0,0,0,0,0,0,0,0,0,0,0,0,0,0,0,0,0,0,0,0,0,0,0,0,0,0,0,0,0,0,0,0,0,0,0,0,0,0,0,0,0,0,0,0,0,0,0,0,0,0,0,0,0,0,0,0,0,0,0,0,0,0,0,0,0,0,0,0,0,0,0,0,0],"sum_hessian":[3.8352375E4,2.3572645E4,1.4779731E4,2.255679E4,1.0158559E3,7.974283E3,6.805448E3,1.7900022E3,2.0766787E4,9.7118E2,4.4675846E1,4.7562662E2,7.4986567E3,1.9140876E3,4.8913604E3,1.7864417E3,3.5606446E0,3.143995E2,2.0452387E4,8.226299E1,8.8891705E2,1.7406063E1,2.7269785E1,4.376389E2,3.7987713E1,2.384198E3,5.1144585E3,2.3068266E2,1.683405E3,4.5818013E3,3.0955942E2,2.1105766E0,1.4500681E0,3.2898016E0,3.111097E2,2.0410902E4,4.1485374E1,5.4595253E1,2.7667742E1,3.539082E2,5.3500885E2,4.8061585E0,1.2599904E1,1.300331E1,1.4266475E1,2.4114597E1,4.135243E2,1.1882761E1,2.610495E1,1.4717706E3,9.124274E2,5.096224E3,1.8234602E1,2.0409483E1,2.102732E2,5.236945E2,1.1597106E3,4.376346E3,2.0545508E2,9.403986E1,2.1551956E2,1.0231624E0,1.0874143E0,1.7192668E2,1.3918303E2,1.3277622E4,7.1332803E3,1.9053856E1,2.243152E1,4.3854107E1,1.0741145E1,1.2729686E1,1.4938057E1,3.2093008E2,3.2978107E1,3.0881445E2,2.2619437E2,2.1587868E0,2.6473718E0,6.6308093E0,5.9690948E0,1.1241153E1,1.7621579E0,3.498696E2,6.365471E1,1.1278282E0,1.0754933E1,5.890541E0,2.0214409E1,1.3464637E3,1.2530695E2,9.034086E2,9.018843E0,3.9424402E3,1.1537837E3,9.251095E0,8.983506E0,2.2955046E0,1.8113977E1,1.3222589E2,7.8047295E1,2.3395541E2,2.8973907E2,2.2957453E1,1.136753E3,3.7963435E3,5.800026E2,8.703822E1,1.18416855E2,6.68558E1,2.7184063E1,1.22330864E2,9.3188705E1],"tree_param":{"num_deleted":"0","num_feature":"9","num_nodes":"113","size_leaf_vector":"1"}},{"base_weights":[1.3757735E-2,-1.44321E-1,2.3272303E-1,-2.0040192E-1,6.859281E-2,3.0108684E-1,-2.3843396E-1,-3.281116E-1,-1.8426394E-1,-2.2238922E-1,9.6674904E-2,3.4430176E-1,3.2624006E-2,-2.4209528E-1,2.0202968E-1,-3.5079467E-1,-2.233751E-1,-1.4988437E-1,-2.4121863E-1,-8.0005266E-2,-2.7441528E-1,1.3967852E-1,5.5475146E-2,3.6270383E-1,1.3243848E-1,1.7818771E-1,-6.439349E-2,-5.722875E-3,-2.451971E-1,3.943216E-1,-1.5060028E-1,-2.8377464E-1,-3.7153473E-1,-2.0847432E-1,-5.048231E-1,-1.3833654E-1,-3.3084905E-1,-3.0154976E-1,-2.1961899E-1,-1.648117E-1,2.0790906E-1,-3.4879327E-1,-2.1043023E-1,2.3330146E-2,1.8323445E-1,-2.5409136E-2,8.2633555E-2,3.6627975E-1,-7.23713E-1,-1.661389E-1,2.3245023E-1,2.6219955E-1,6.4215966E-2,-1.034792E-2,-2.3389766E-1,-9.772966E-2,2.3039502E-1,-2.4015847E-1,-4.0575442E-1,-3.4220326E-1,5.672992E-1,-9.955807E-2,-3.7652735E-2,-8.961585E-2,-1.1777819E-1,-2.879812E-2,-7.310468E-2,-1.5921858E-1,-5.696302E-2,-5.0575517E-2,-1.9181296E-2,-1.0548965E-1,1.5064892E-2,-9.533792E-2,-1.32936835E-2,-6.637012E-2,1.2755449E-1,-1.874468E-2,-1.10071436E-1,-4.493344E-2,1.8793696E-1,-7.6522775E-2,-1.4121836E-1,-1.4902459E-1,-4.8930157E-2,-6.740615E-2,2.0821529E-2,1.411641E-1,4.769316E-2,4.6839338E-2,-3.5431623E-2,-5.2678084E-4,3.749771E-2,1.1395435E-1,5.024413E-2,-1.3683954E-1,-2.3929225E-1,-5.5175412E-2,2.4950424E-1,9.001399E-2,-4.5981213E-2,1.895256E-2,1.0171435E-1,-4.2370275E-2,3.9068405E-2,2.178716E-1,-9.026277E-3,-7.261897E-3,-8.307489E-2,7.21079E-2,-6.2737E-2,-7.855993E-2,-5.9223607E-2,-1.03950605E-1,-1.5923549E-1,-1.2597063E-1,-2.8198762E-2,2.1312068E-1,5.364643E-2],"categories":[],"categories_nodes":[],"categories_segments":[],"categories_sizes":[],"default_left":[0,0,0,0,0,0,0,0,0,0,0,0,0,0,0,0,0,0,0,0,0,0,0,0,0,0,0,0,0,0,0,0,0,0,0,0,0,0,0,0,0,0,0,0,0,0,0,0,0,0,0,0,0,0,0,0,0,0,0,0,0,0,0,0,0,0,0,0,0,0,0,0,0,0,0,0,0,0,0,0,0,0,0,0,0,0,0,0,0,0,0,0,0,0,0,0,0,0,0,0,0,0,0,0,0,0,0,0,0,0,0,0,0,0,0,0,0,0,0],"id":11,"left_children":[1,3,5,7,9,11,13,15,17,19,21,23,25,27,29,31,33,35,37,39,41,43,45,47,49,51,53,55,57,59,-1,61,63,65,67,69,71,73,75,77,79,81,83,85,87,89,91,93,95,97,99,101,103,105,107,109,-1,111,113,115,117,-1,-1,-1,-1,-1,-1,-1,-1,-1,-1,-1,-1,-1,-1,-1,-1,-1,-1,-1,-1,-1,-1,-1,-1,-1,-1,-1,-1,-1,-1,-1,-1,-1,-1,-1,-1,-1,-1,-1,-1,-1,-1,-1,-1,-1,-1,-1,-1,-1,-1,-1,-1,-1,-1,-1,-1,-1,-1],"loss_changes":[1.3813043E3,2.7673587E2,5.389782E2,3.7745728E1,3.950893E1,1.6950427E2,3.4687119E0,4.8078003E0,3.185736E1,3.1309185E0,7.8016853E0,4.9019043E1,2.8637405E1,1.5408859E0,2.638423E0,2.2420044E0,1.4417706E0,2.1185516E1,7.921295E0,2.8498433E0,1.4081516E0,1.09217E1,4.9507174E0,4.5249146E1,3.0119644E1,7.747944E0,1.1147072E1,2.087511E0,1.5822296E0,2.069442E0,0E0,3.0279007E0,1.855423E0,1.3707466E0,4.4816017E-2,2.148555E1,4.838463E0,6.7267E0,4.797348E0,1.8306847E0,4.088004E0,1.5076714E0,2.2209177E0,6.7396774E0,1.0857422E1,9.56058E0,6.0296583E0,3.1067993E1,3.9426804E-1,4.647381E0,1.9731777E1,7.1136436E0,4.7032986E0,1.3454962E1,2.6471062E0,1.0352091E0,0E0,1.8186264E0,2.7336407E-1,2.6549876E-2,5.5654716E-1,0E0,0E0,0E0,0E0,0E0,0E0,0E0,0E0,0E0,0E0,0E0,0E0,0E0,0E0,0E0,0E0,0E0,0E0,0E0,0E0,0E0,0E0,0E0,0E0,0E0,0E0,0E0,0E0,0E0,0E0,0E0,0E0,0E0,0E0,0E0,0E0,0E0,0E0,0E0,0E0,0E0,0E0,0E0,0E0,0E0,0E0,0E0,0E0,0E0,0E0,0E0,0E0,0E0,0E0,0E0,0E0,0E0,0E0],"parents":[2147483647,0,0,1,1,2,2,3,3,4,4,5,5,6,6,7,7,8,8,9,9,10,10,11,11,12,12,13,13,14,14,15,15,16,16,17,17,18,18,19,19,20,20,21,21,22,22,23,23,24,24,25,25,26,26,27,27,28,28,29,29,31,31,32,32,33,33,34,34,35,35,36,36,37,37,38,38,39,39,40,40,41,41,42,42,43,43,44,44,45,45,46,46,47,47,48,48,49,49,50,50,51,51,52,52,53,53,54,54,55,55,57,57,58,58,59,59,60,60],"right_children":[2,4,6,8,10,12,14,16,18,20,22,24,26,28,30,32,34,36,38,40,42,44,46,48,50,52,54,56,58,60,-1,62,64,66,68,70,72,74,76,78,80,82,84,86,88,90,92,94,96,98,100,102,104,106,108,110,-1,112,114,116,118,-1,-1,-1,-1,-1,-1,-1,-1,-1,-1,-1,-1,-1,-1,-1,-1,-1,-1,-1,-1,-1,-1,-1,-1,-1,-1,-1,-1,-1,-1,-1,-1,-1,-1,-1,-1,-1,-1,-1,-1,-1,-1,-1,-1,-1,-1,-1,-1,-1,-1,-1,-1,-1,-1,-1,-1,-1,-1],"split_conditions":[2E0,1.491E1,2.1E1,3E0,2.39346E3,1.47221E3,4.680146E2,1.0090525E4,1.6E1,1.3E1,3.8E1,2.6328033E2,1.5E1,9.575854E0,6.161795E3,3.1542E2,1.42736E3,1.5E1,1E1,6E0,2.1E1,1.903E1,2E1,3.6E1,5.8602915E3,6E0,8E0,1.0038846E3,6E1,8.06E0,-1.5060028E-1,2.4816E2,2.144964E3,7.2479424E0,1.5E1,6E0,2.9E1,1.1609196E4,6.822538E2,1.1843946E2,7E0,1.9E1,2.55909E1,2.81606E3,1.7E1,1.3908992E3,7.205824E1,9.366753E3,9.347125E2,1.0910109E3,6.822538E2,1.1E1,9.15E0,1.2709243E1,1.6E1,2E1,2.3039502E-1,9.6604034E1,1.2486764E2,2.8E1,3.8E1,-9.955807E-2,-3.7652735E-2,-8.961585E-2,-1.1777819E-1,-2.879812E-2,-7.310468E-2,-1.5921858E-1,-5.696302E-2,-5.0575517E-2,-1.9181296E-2,-1.0548965E-1,1.5064892E-2,-9.533792E-2,-1.32936835E-2,-6.637012E-2,1.2755449E-1,-1.874468E-2,-1.10071436E-1,-4.493344E-2,1.8793696E-1,-7.6522775E-2,-1.4121836E-1,-1.4902459E-1,-4.8930157E-2,-6.740615E-2,2.0821529E-2,1.411641E-1,4.769316E-2,4.6839338E-2,-3.5431623E-2,-5.2678084E-4,3.749771E-2,1.1395435E-1,5.024413E-2,-1.3683954E-1,-2.3929225E-1,-5.5175412E-2,2.4950424E-1,9.001399E-2,-4.5981213E-2,1.895256E-2,1.0171435E-1,-4.2370275E-2,3.9068405E-2,2.178716E-1,-9.026277E-3,-7.261897E-3,-8.307489E-2,7.21079E-2,-6.2737E-2,-7.855993E-2,-5.9223607E-2,-1.03950605E-1,-1.5923549E-1,-1.2597063E-1,-2.8198762E-2,2.1312068E-1,5.364643E-2],"split_indices":[8,4,7,5,6,6,1,0,3,3,3,1,7,1,0,6,6,2,7,5,7,4,7,3,0,5,5,0,3,4,0,6,0,1,3,5,7,0,1,1,7,2,1,6,7,0,1,0,0,1,1,2,4,1,7,3,0,1,1,3,3,0,0,0,0,0,0,0,0,0,0,0,0,0,0,0,0,0,0,0,0,0,0,0,0,0,0,0,0,0,0,0,0,0,0,0,0,0,0,0,0,0,0,0,0,0,0,0,0,0,0,0,0,0,0,0,0,0,0],"split_type":[0,0,0,0,0,0,0,0,0,0,0,0,0,0,0,0,0,0,0,0,0,0,0,0,0,0,0,0,0,0,0,0,0,0,0,0,0,0,0,0,0,0,0,0,0,0,0,0,0,0,0,0,0,0,0,0,0,0,0,0,0,0,0,0,0,0,0,0,0,0,0,0,0,0,0,0,0,0,0,0,0,0,0,0,0,0,0,0,0,0,0,0,0,0,0,0,0,0,0,0,0,0,0,0,0,0,0,0,0,0,0,0,0,0,0,0,0,0,0],"sum_hessian":[3.9904254E4,2.3174273E4,1.672998E4,1.834287E4,4.831404E3,1.4610404E4,2.119576E3,2.0556807E3,1.6287189E4,4.24622E2,4.4067817E3,1.2584393E4,2.0260127E3,2.102549E3,1.7026918E1,1.6877996E3,3.6788104E2,1.0158714E4,6.128476E3,1.1431224E2,3.1030975E2,2.1550188E3,2.2517632E3,1.1578032E4,1.0063599E3,8.099453E2,1.2160674E3,2.7270308E1,2.0752788E3,1.3719594E1,3.3073246E0,4.023423E2,1.2854573E3,3.510367E2,1.6844316E1,9.551003E3,6.077102E2,1.6122494E3,4.5162266E3,8.863267E1,2.5679577E1,1.4144225E2,1.6886751E2,5.874184E2,1.5676005E3,5.6603595E2,1.6857272E3,1.1540709E4,3.7323273E1,2.5234428E2,7.540156E2,4.6550653E2,3.4443875E2,9.2287445E2,2.9319293E2,2.515289E1,2.1174183E0,2.0145537E3,6.0725086E1,2.423256E0,1.1296338E1,3.0774402E2,9.459827E1,2.917779E2,9.936793E2,8.457311E1,2.664636E2,1.4931045E1,1.9132719E0,6.7893706E3,2.7616328E3,5.7635345E2,3.135676E1,1.516269E3,9.5980316E1,4.5056E3,1.0626247E1,5.9708538E1,2.8924128E1,1.4192732E1,1.1486844E1,8.172294E1,5.971931E1,2.2607748E1,1.4625977E2,9.142253E1,4.9599585E2,1.2061306E2,1.4469873E3,1.9109778E2,3.7493817E2,5.636841E2,1.1220431E3,1.0802526E4,7.381829E2,9.631625E0,2.7691648E1,2.4872813E2,3.6161516E0,6.417696E2,1.1224601E2,1.3018109E2,3.3532547E2,8.348079E1,2.6095798E2,2.3152359E1,8.997221E2,5.017606E1,2.4301688E2,5.946624E0,1.9206264E1,1.3326619E3,6.818918E2,4.3758926E1,1.696616E1,1.3187085E0,1.1045473E0,7.649734E0,3.6466043E0],"tree_param":{"num_deleted":"0","num_feature":"9","num_nodes":"119","size_leaf_vector":"1"}},{"base_weights":[-1.3969046E-2,1.6928892E-1,-3.5742494E-1,2.4610184E-1,-1.425064E-1,-1.20590284E-1,-4.5881104E-1,4.7317868E-1,2.0664564E-1,-1.678483E-1,2.864145E-1,-1.6214068E-1,2.2321658E-1,-3.186658E-1,-4.852474E-1,4.885974E-1,3.9950198E-1,2.4061221E-1,4.6194628E-2,-1.401487E-1,-3.1831476E-1,3.730279E-1,-2.986052E-2,-5.3519465E-2,-1.8774985E-1,3.1724203E-1,-9.2389E-3,-1.4407417E-1,-4.20535E-1,-4.9512497E-1,-8.2669206E-2,4.5456868E-1,5.065104E-1,4.7958884E-1,3.6982137E-1,2.764981E-1,1.4696656E-1,-3.1079647E-1,1.7603475E-1,7.04906E-1,-1.4637873E-1,-3.7339276E-1,-1.2908612E-1,3.017482E-1,6.455715E-1,-3.34649E-1,2.3762138E-1,-3.3501944E-1,3.1197408E-2,-1.7159645E-2,-2.1390155E-1,3.829224E-1,-3.0864092E-2,-5.636689E-1,1.22694306E-1,-1.7190558E-1,-9.141633E-2,-4.420428E-1,-2.2785023E-2,-5.4666084E-1,-4.3503693E-1,2.1036668E-1,-4.135529E-1,1.1417768E-1,1.447983E-1,1.2256357E-1,1.5401697E-1,4.9212147E-2,1.5836519E-1,1.2894717E-1,8.75922E-2,7.575466E-2,1.04090236E-1,-3.1673867E-2,5.0008968E-2,-4.4412613E-2,-1.5355459E-1,8.075675E-2,-4.3791413E-2,-1.5541026E-1,2.8731108E-1,-5.3230174E-2,-8.11578E-3,-1.1932775E-1,1.52192E-1,8.7350994E-2,-1.6342615E-1,1.06759354E-1,-1.3269228E-1,1.6181344E-1,2.6115385E-1,8.667134E-2,-1.7456168E-1,8.813761E-2,-1.4126243E-1,-1.20638326E-1,1.9966385E-1,-5.216798E-3,1.6683993E-1,6.7948684E-2,-6.379777E-2,-1.5731357E-2,-7.657811E-2,1.2080654E-1,-1.5931906E-1,1.938157E-1,-1.0559825E-1,1.2335921E-1,-2.1060559E-1,1.1529943E-1,-1.0718739E-1,-1.5178639E-1,-1.3158757E-2,-1.3543463E-1,1.1175171E-1,-4.2765778E-2,2.9833663E-1,-1.6508132E-1,-7.4340734E-3,-1.5643016E-1,-1.1913194E-1,6.2443917E-3,1.8183741E-1,-1.4668186E-1,1.5654953E-2],"categories":[],"categories_nodes":[],"categories_segments":[],"categories_sizes":[],"default_left":[0,0,0,0,0,0,0,0,0,0,0,0,0,0,0,0,0,0,0,0,0,0,0,0,0,0,0,0,0,0,0,0,0,0,0,0,0,0,0,0,0,0,0,0,0,0,0,0,0,0,0,0,0,0,0,0,0,0,0,0,0,0,0,0,0,0,0,0,0,0,0,0,0,0,0,0,0,0,0,0,0,0,0,0,0,0,0,0,0,0,0,0,0,0,0,0,0,0,0,0,0,0,0,0,0,0,0,0,0,0,0,0,0,0,0,0,0,0,0,0,0,0,0,0,0],"id":12,"left_children":[1,3,5,7,9,11,13,15,17,19,21,23,25,27,29,31,33,35,37,39,41,43,45,47,49,51,53,55,57,59,61,63,65,67,69,71,73,75,77,79,81,83,85,87,89,91,93,95,97,99,101,103,105,107,109,-1,111,113,115,117,119,121,123,-1,-1,-1,-1,-1,-1,-1,-1,-1,-1,-1,-1,-1,-1,-1,-1,-1,-1,-1,-1,-1,-1,-1,-1,-1,-1,-1,-1,-1,-1,-1,-1,-1,-1,-1,-1,-1,-1,-1,-1,-1,-1,-1,-1,-1,-1,-1,-1,-1,-1,-1,-1,-1,-1,-1,-1,-1,-1,-1,-1,-1,-1],"loss_changes":[2.2424932E3,5.564496E2,2.9759656E2,1.6691467E2,4.9970154E1,5.313826E1,3.2003418E1,2.9386597E0,8.6550476E1,1.803225E1,7.0399914E0,9.216911E0,8.772421E0,2.4490479E1,2.8989258E1,1.1575928E0,9.7049713E-1,4.400891E1,1.2873355E2,1.939669E1,6.9714584E0,3.719698E0,4.652052E0,1.5135616E1,1.1969292E1,6.5440483E0,8.592587E0,1.1470845E1,7.4430847E0,2.1827393E1,1.7155275E1,1.4683228E0,7.895813E-1,1.8519287E0,1.5406303E0,1.5925842E1,1.8122696E1,2.4163788E1,6.112275E1,8.840712E0,1.347908E1,1.1385391E1,2.6950554E1,6.6644487E0,5.073643E-1,4.2734036E0,1.3504096E0,1.012492E1,1.2467142E1,1.7093054E1,1.5525932E1,4.5573807E0,1.0286585E1,3.3336816E0,1.2060895E1,0E0,8.9584675E0,6.500366E0,5.71539E0,7.2056885E0,1.0589783E1,7.0403366E0,2.9401674E0,0E0,0E0,0E0,0E0,0E0,0E0,0E0,0E0,0E0,0E0,0E0,0E0,0E0,0E0,0E0,0E0,0E0,0E0,0E0,0E0,0E0,0E0,0E0,0E0,0E0,0E0,0E0,0E0,0E0,0E0,0E0,0E0,0E0,0E0,0E0,0E0,0E0,0E0,0E0,0E0,0E0,0E0,0E0,0E0,0E0,0E0,0E0,0E0,0E0,0E0,0E0,0E0,0E0,0E0,0E0,0E0,0E0,0E0,0E0,0E0,0E0,0E0],"parents":[2147483647,0,0,1,1,2,2,3,3,4,4,5,5,6,6,7,7,8,8,9,9,10,10,11,11,12,12,13,13,14,14,15,15,16,16,17,17,18,18,19,19,20,20,21,21,22,22,23,23,24,24,25,25,26,26,27,27,28,28,29,29,30,30,31,31,32,32,33,33,34,34,35,35,36,36,37,37,38,38,39,39,40,40,41,41,42,42,43,43,44,44,45,45,46,46,47,47,48,48,49,49,50,50,51,51,52,52,53,53,54,54,56,56,57,57,58,58,59,59,60,60,61,61,62,62],"right_children":[2,4,6,8,10,12,14,16,18,20,22,24,26,28,30,32,34,36,38,40,42,44,46,48,50,52,54,56,58,60,62,64,66,68,70,72,74,76,78,80,82,84,86,88,90,92,94,96,98,100,102,104,106,108,110,-1,112,114,116,118,120,122,124,-1,-1,-1,-1,-1,-1,-1,-1,-1,-1,-1,-1,-1,-1,-1,-1,-1,-1,-1,-1,-1,-1,-1,-1,-1,-1,-1,-1,-1,-1,-1,-1,-1,-1,-1,-1,-1,-1,-1,-1,-1,-1,-1,-1,-1,-1,-1,-1,-1,-1,-1,-1,-1,-1,-1,-1,-1,-1,-1,-1,-1,-1],"split_conditions":[1.3E1,2E0,1.26796E3,3E0,3.8525504E2,2.8263962E2,1.7E1,1.0090525E4,1.6E1,1.37733E3,1.0090525E4,1.1203244E1,9.778347E3,1.49407E3,4.3473138E2,2.80587E3,5E0,6E0,8E0,5.8805206E2,7E0,7E0,1.491E1,3.3047E2,1.2764858E3,1.571E1,2.1792E2,1E0,2.687E1,1.521E1,5.94732E3,4E0,1.56E0,2E0,6.24E0,1.3798288E2,1.36E0,2E1,7.4711777E3,2.5160458E1,1.4670125E2,2.6328033E2,2.7552314E3,1.43418E3,1.491E1,8.27E0,1.989E1,9.657933E3,9.575854E0,1.6E1,4E0,1.2631E3,5.1148335E3,7E0,7.2513E2,-1.7190558E-1,1.29223E3,4.92157E3,2.5E1,7.6806123E3,2.60483E3,2.2E1,6.822538E2,1.1417768E-1,1.447983E-1,1.2256357E-1,1.5401697E-1,4.9212147E-2,1.5836519E-1,1.2894717E-1,8.75922E-2,7.575466E-2,1.04090236E-1,-3.1673867E-2,5.0008968E-2,-4.4412613E-2,-1.5355459E-1,8.075675E-2,-4.3791413E-2,-1.5541026E-1,2.8731108E-1,-5.3230174E-2,-8.11578E-3,-1.1932775E-1,1.52192E-1,8.7350994E-2,-1.6342615E-1,1.06759354E-1,-1.3269228E-1,1.6181344E-1,2.6115385E-1,8.667134E-2,-1.7456168E-1,8.813761E-2,-1.4126243E-1,-1.20638326E-1,1.9966385E-1,-5.216798E-3,1.6683993E-1,6.7948684E-2,-6.379777E-2,-1.5731357E-2,-7.657811E-2,1.2080654E-1,-1.5931906E-1,1.938157E-1,-1.0559825E-1,1.2335921E-1,-2.1060559E-1,1.1529943E-1,-1.0718739E-1,-1.5178639E-1,-1.3158757E-2,-1.3543463E-1,1.1175171E-1,-4.2765778E-2,2.9833663E-1,-1.6508132E-1,-7.4340734E-3,-1.5643016E-1,-1.1913194E-1,6.2443917E-3,1.8183741E-1,-1.4668186E-1,1.5654953E-2],"split_indices":[7,8,6,5,1,1,7,0,3,6,0,1,0,6,1,0,7,5,2,0,5,5,4,6,0,4,6,8,4,4,0,2,4,3,4,1,4,3,0,1,1,1,0,6,4,4,4,0,1,7,5,6,0,3,6,0,6,6,2,0,6,2,1,0,0,0,0,0,0,0,0,0,0,0,0,0,0,0,0,0,0,0,0,0,0,0,0,0,0,0,0,0,0,0,0,0,0,0,0,0,0,0,0,0,0,0,0,0,0,0,0,0,0,0,0,0,0,0,0,0,0,0,0,0,0],"split_type":[0,0,0,0,0,0,0,0,0,0,0,0,0,0,0,0,0,0,0,0,0,0,0,0,0,0,0,0,0,0,0,0,0,0,0,0,0,0,0,0,0,0,0,0,0,0,0,0,0,0,0,0,0,0,0,0,0,0,0,0,0,0,0,0,0,0,0,0,0,0,0,0,0,0,0,0,0,0,0,0,0,0,0,0,0,0,0,0,0,0,0,0,0,0,0,0,0,0,0,0,0,0,0,0,0,0,0,0,0,0,0,0,0,0,0,0,0,0,0,0,0,0,0,0,0],"sum_hessian":[3.562652E4,2.3231424E4,1.2395097E4,1.863963E4,4.591791E3,3.716249E3,8.678848E3,2.7576897E3,1.5881941E4,4.3362046E3,2.5558682E2,3.3160232E3,4.0022598E2,1.379397E3,7.2994507E3,2.2757917E3,4.818981E2,1.3106806E4,2.7751365E3,3.663683E3,6.725214E2,2.0049962E2,5.5087204E1,6.3323737E2,2.6827856E3,2.8470248E2,1.1552349E2,5.0916437E2,8.702326E2,7.124418E3,1.7503276E2,7.93943E2,1.4818488E3,1.2620424E2,3.5569385E2,9.474237E3,3.632568E3,7.3976996E2,2.0353666E3,2.5991493E1,3.6376914E3,5.201502E2,1.523712E2,1.6060335E2,3.9896263E1,2.5630651E1,2.9456553E1,1.458032E2,4.8743417E2,3.5682657E2,2.3259592E3,2.3942747E2,4.5275005E1,2.1576984E1,9.39465E1,5.4590977E1,4.5457336E2,8.254843E2,4.474833E1,3.8307708E3,3.2936472E3,9.30184E1,8.201435E1,2.2252034E2,5.7142267E2,1.01195564E2,1.3806532E3,1.7335438E1,1.088688E2,1.9831615E2,1.573777E2,7.0720234E3,2.402214E3,2.6291208E2,3.369656E3,4.097821E2,3.2998785E2,1.5787948E3,4.5657175E2,4.2726765E0,2.1718817E1,2.886087E3,7.516045E2,5.066802E2,1.3470004E1,7.591635E1,7.645486E1,1.5020074E2,1.0402605E1,2.9409897E1,1.0486365E1,7.228961E0,1.8401691E1,2.7835075E1,1.6214776E0,1.371993E2,8.603909E0,4.4702548E2,4.0408688E1,1.5877873E2,1.9804784E2,4.747633E2,1.8511958E3,2.3490677E2,4.5207167E0,1.4242066E1,3.103294E1,2.4364743E0,1.914051E1,6.093209E1,3.3014416E1,4.5788048E1,4.0878534E2,8.165016E2,8.982705E0,4.080402E1,3.9443085E0,3.8043987E3,2.6372042E1,1.00095557E3,2.2926917E3,6.3606205E1,2.9412199E1,7.054563E1,1.1468724E1],"tree_param":{"num_deleted":"0","num_feature":"9","num_nodes":"125","size_leaf_vector":"1"}},{"base_weights":[-5.3359033E-3,-1.9617689E-1,2.8314725E-1,-2.2328417E-1,4.237597E-1,3.570137E-1,2.006979E-1,-5.616308E-1,-1.9786392E-1,4.3420008E-1,2.4235256E-1,1.2807262E-2,3.8371968E-1,3.356254E-1,1.5031546E-1,-1.6909762E-1,2.174898E-1,-2.060861E-1,4.6030858E-1,3.11183E-1,4.4800702E-1,2.9645428E-1,-2.963966E-1,-1.5424542E-1,1.1131973E-1,3.4004098E-1,4.0987784E-1,8.211811E-2,3.7415668E-1,1.3748679E-1,3.519463E-1,5.621771E-1,-1.0413847E-1,-1.4817573E-1,-2.8526407E-1,-4.3726233E-1,5.442974E-1,1.0823071E-1,4.1314486E-1,-7.7552795E-2,4.503739E-1,7.713141E-2,4.2559063E-1,-4.694164E-3,-1.5949379E-1,-4.6211162E-1,-1.3775966E-2,2.9047057E-1,-2.7147107E-2,3.9329803E-1,2.514029E-1,4.6644783E-1,3.8997737E-1,-3.8067618E-1,1.3741584E-1,2.2441791E-1,4.0329102E-1,1.23601556E-1,2.3672958E-1,-2.3050015E-1,4.0121222E-1,2.0946419E-1,4.704151E-2,-7.401556E-2,4.741253E-2,-9.885614E-2,-2.5075728E-2,-1.6269954E-1,2.4186583E-1,1.09425746E-1,2.8321314E-1,7.510486E-2,-6.29607E-2,6.193802E-2,1.3631946E-1,1.404762E-1,1.07801095E-1,1.1654333E-1,-7.174643E-2,-1.1802375E-2,1.5474486E-1,3.369691E-1,-1.594191E-1,9.863405E-2,-7.408366E-2,1.0382783E-1,-1.7350459E-1,-1.21979915E-1,2.5975076E-2,1.1897187E-1,-8.049634E-2,-5.409476E-2,8.3274856E-2,1.4085664E-1,-1.5097916E-1,1.2167274E-1,9.357317E-2,-8.463035E-3,-1.6105941E-1,9.484873E-2,-2.6727458E-2,-1.770897E-1,8.256115E-2,7.043965E-2,1.2682414E-1,4.49736E-2,1.128718E-2,2.5651423E-2,9.4124764E-2,9.556012E-2,-2.0613655E-1,-1.4605364E-1,1.2466636E-1],"categories":[],"categories_nodes":[],"categories_segments":[],"categories_sizes":[],"default_left":[0,0,0,0,0,0,0,0,0,0,0,0,0,0,0,0,0,0,0,0,0,0,0,0,0,0,0,0,0,0,0,0,0,0,0,0,0,0,0,0,0,0,0,0,0,0,0,0,0,0,0,0,0,0,0,0,0,0,0,0,0,0,0,0,0,0,0,0,0,0,0,0,0,0,0,0,0,0,0,0,0,0,0,0,0,0,0,0,0,0,0,0,0,0,0,0,0,0,0,0,0,0,0,0,0,0,0,0,0,0,0,0,0],"id":13,"left_children":[1,3,5,7,9,11,13,15,17,19,21,23,25,27,29,-1,31,33,35,37,39,41,43,45,47,49,51,53,55,57,59,61,-1,63,65,67,69,71,73,-1,75,77,79,-1,-1,81,83,85,87,89,91,93,95,97,99,101,103,105,107,109,111,-1,-1,-1,-1,-1,-1,-1,-1,-1,-1,-1,-1,-1,-1,-1,-1,-1,-1,-1,-1,-1,-1,-1,-1,-1,-1,-1,-1,-1,-1,-1,-1,-1,-1,-1,-1,-1,-1,-1,-1,-1,-1,-1,-1,-1,-1,-1,-1,-1,-1,-1,-1],"loss_changes":[1.9712616E3,3.622345E2,8.6750244E1,1.774762E2,1.6053314E0,6.910376E1,4.5760193E1,2.4014282E0,1.0403204E2,1.3089447E0,1.5864143E0,8.942326E0,7.831909E0,1.785794E1,1.2648216E1,0E0,1.0642948E0,8.6939514E1,1.812577E1,1.8037138E0,1.3947144E0,1.304596E0,3.3458164E-1,8.71208E0,8.485172E0,1.2264709E1,4.7248535E0,6.268721E0,6.843567E0,6.332344E0,8.499424E0,6.448996E-2,0E0,3.3071988E2,7.1487976E1,3.1623778E0,1.526075E1,1.4641439E0,4.1009617E-1,0E0,1.0724335E0,1.9364617E0,1.2577806E0,0E0,0E0,7.5315676E0,1.1221031E1,7.4039288E0,8.393108E0,3.6474457E0,1.1191685E1,3.602539E0,3.807251E0,1.426743E0,8.842989E0,1.0967435E1,4.258499E0,9.160381E0,6.560112E0,6.1063013E0,3.6475487E0,0E0,0E0,0E0,0E0,0E0,0E0,0E0,0E0,0E0,0E0,0E0,0E0,0E0,0E0,0E0,0E0,0E0,0E0,0E0,0E0,0E0,0E0,0E0,0E0,0E0,0E0,0E0,0E0,0E0,0E0,0E0,0E0,0E0,0E0,0E0,0E0,0E0,0E0,0E0,0E0,0E0,0E0,0E0,0E0,0E0,0E0,0E0,0E0,0E0,0E0,0E0,0E0],"parents":[2147483647,0,0,1,1,2,2,3,3,4,4,5,5,6,6,7,7,8,8,9,9,10,10,11,11,12,12,13,13,14,14,16,16,17,17,18,18,19,19,20,20,21,21,22,22,23,23,24,24,25,25,26,26,27,27,28,28,29,29,30,30,31,31,33,33,34,34,35,35,36,36,37,37,38,38,40,40,41,41,42,42,45,45,46,46,47,47,48,48,49,49,50,50,51,51,52,52,53,53,54,54,55,55,56,56,57,57,58,58,59,59,60,60],"right_children":[2,4,6,8,10,12,14,16,18,20,22,24,26,28,30,-1,32,34,36,38,40,42,44,46,48,50,52,54,56,58,60,62,-1,64,66,68,70,72,74,-1,76,78,80,-1,-1,82,84,86,88,90,92,94,96,98,100,102,104,106,108,110,112,-1,-1,-1,-1,-1,-1,-1,-1,-1,-1,-1,-1,-1,-1,-1,-1,-1,-1,-1,-1,-1,-1,-1,-1,-1,-1,-1,-1,-1,-1,-1,-1,-1,-1,-1,-1,-1,-1,-1,-1,-1,-1,-1,-1,-1,-1,-1,-1,-1,-1,-1,-1],"split_conditions":[1.47853E3,2.1E1,1.491E1,3E0,1.46506E3,1.5E1,2.5188E3,2.5E1,8E0,2.13106E1,3.1188474E2,5E0,2.2E1,1.5E1,1E0,-1.6909762E-1,1E1,2E0,1.12437E3,8.1170416E2,5.7E-1,7E0,2.1E1,2E0,1.1E1,1E0,2.5E1,1.2421562E3,1.3E1,5.7E1,9E0,1.723342E3,-1.0413847E-1,1.6E1,1.25512E3,2.2372273E2,2E0,1.8945349E1,5.89E0,-7.7552795E-2,1.8841093E2,1.5713942E3,1.3908992E3,-4.694164E-3,-1.5949379E-1,2E0,1E1,1.1395943E4,1.56152E3,4.680146E2,1.50749E3,5.853831E2,2.81606E3,1.6483566E1,3.0186426E3,5.541337E2,5E0,3E1,1.989E1,6E0,1.505E1,2.0946419E-1,4.704151E-2,-7.401556E-2,4.741253E-2,-9.885614E-2,-2.5075728E-2,